2169 100
emma -0.15433826 0.08378948 0.057223268 -0.12998866 0.07726785 -0.2875071 0.12558313 0.29570848 -0.0948865 -0.12826723 -0.042539246 -0.10057304 -0.06656455 0.089828394 0.07799952 -0.0805705 -0.04744597 -0.15457039 -0.038044877 -0.35045263 0.14406896 0.08280423 0.16838393 -0.14872943 -0.025780357 -0.031249922 -0.056249727 0.012767447 -0.17573637 -0.034236614 0.14259681 0.014475132 0.051038396 -0.2549742 0.016458778 0.046466734 -0.053089835 -0.19967942 -0.14517893 -0.25142992 -0.017780298 -0.0750514 -0.10014304 0.039328605 0.16641682 -0.19208834 -0.09672097 -0.022961931 0.12750575 0.106248476 0.056338098 -0.15696567 0.045423 -0.028319603 -0.005417093 -0.038133625 0.019950936 -0.038438417 -0.19462769 -0.016036244 0.10242941 0.035621073 -0.011227372 0.008071811 -0.34536347 0.22801447 0.0969857 0.15949734 -0.22092193 0.15624136 -0.10219285 0.23829249 0.16219382 -0.08401115 0.0869922 0.07107075 -0.0015293624 -0.008201581 -0.18763676 0.029950114 -0.22298995 -0.059114706 -0.21137398 0.26932198 -0.022151457 0.013107563 0.12139158 0.15751766 0.08902162 0.13332032 0.23972805 0.20255807 -0.02613146 0.06224504 0.21719655 0.097919464 0.10206564 -0.1946919 0.09610582 0.120458536
could -0.1375915 0.10072633 0.06612406 -0.13868955 0.08362643 -0.31902662 0.13333455 0.318332 -0.10428566 -0.1318368 -0.07430483 -0.11105008 -0.06465623 0.09624101 0.1317276 -0.05724614 -0.064260095 -0.12555932 -0.045327142 -0.33733475 0.12962748 0.040687103 0.1660783 -0.18107398 0.0020311407 0.012922615 -0.019284317 -0.0352689 -0.14644463 0.040730808 0.14684376 0.043772444 0.048868716 -0.23933782 -0.012050588 0.053912718 -0.07529476 -0.10564973 -0.063032635 -0.23851378 -0.0024536888 -0.062965795 -0.08705035 0.07569951 0.10371699 -0.18338728 -0.0773921 -0.020757988 0.07677998 0.11521632 0.09729639 -0.22263648 0.045787215 0.009045313 -0.005029703 0.054993026 0.04643277 0.025727425 -0.18142283 -0.04643824 0.05893518 0.04018388 -0.07842048 0.01381397 -0.3399033 0.25229535 0.096830234 0.11402242 -0.19583881 0.17617449 -0.11244881 0.2084526 0.19435044 -0.1053536 0.052053183 0.052797165 -0.0047188676 -0.065501526 -0.21528769 0.09061276 -0.2479563 -0.026005788 -0.19694014 0.22782633 -0.024600219 0.017704094 0.0931838 0.09535307 0.1356526 0.15952955 0.28272524 0.21242702 -0.057016682 0.052482616 0.22693455 0.101364575 0.1698165 -0.20851433 0.09375823 0.097164445
would -0.08149365 0.106183626 0.09414349 -0.16368671 0.07737234 -0.2672108 0.1400965 0.3166399 -0.10478099 -0.09683344 -0.07821254 -0.108108446 -0.020769339 0.071227275 0.17221494 -0.10067879 -0.030106075 -0.10720768 -0.06684092 -0.35151166 0.10029486 0.044641145 0.17188936 -0.20233613 -0.027443344 0.024895202 -0.0022017392 -0.04182639 -0.12942167 0.024054682 0.102447696 -0.0026312561 0.049609225 -0.26021534 -0.052536365 0.06047193 -0.09884122 -0.10023252 -0.07858158 -0.23190089 -0.03914967 -0.033581737 -0.046908695 0.11058543 0.09466883 -0.18827362 -0.08633637 -0.0031034169 0.05785064 0.1255561 0.10013057 -0.20015186 0.017890673 -0.07318126 -0.009188337 -0.011657254 0.0080777425 0.02728619 -0.17331624 -0.09106327 0.038487922 0.0047908165 -0.0071580447 0.040786378 -0.3655182 0.27163976 0.13897975 0.15098394 -0.23698342 0.15614983 -0.08086948 0.231287 0.20073456 -0.10682981 0.02693531 0.07269141 0.04595568 -0.06580059 -0.25282586 0.11531391 -0.2604302 -0.05790276 -0.22692083 0.23029287 -0.031155419 0.022651842 0.08364372 0.11176874 0.15753594 0.18141495 0.30852214 0.22293416 -0.050121844 0.05592339 0.24232218 0.1376009 0.19447333 -0.16833209 0.107015744 0.07477794
mr -0.45514604 0.24874948 -0.07726359 -0.1564587 0.12073121 -0.36380848 0.085731275 0.41173822 0.023841841 -0.4414578 0.048000637 0.018270675 0.08363632 -0.002280654 0.16419287 -0.09799791 0.21834381 -0.40486258 -0.26317924 -0.20680825 0.22119254 0.18161978 0.5526612 -0.097699754 -0.123571396 -0.0026347325 -0.029528597 0.072219625 -0.056030493 -0.044837154 0.12739582 -0.06829459 -0.16311021 -0.3663055 -0.03838444 0.27723768 0.14091007 -0.40029192 -0.40633813 -0.10048702 -0.093446635 -0.0147426985 -0.0666055 0.095563576 0.4289969 -0.07530655 0.013288154 -0.24718909 0.14599125 0.007502814 0.23868571 -0.17316122 -0.08764847 -0.47177783 -0.2016288 -0.21285877 -0.10957349 -0.13922168 -0.1753465 -0.14115582 0.2199363 -0.0543489 0.42539614 -0.006616868 -0.34486386 0.19039209 0.12822191 0.51404506 -0.28479272 0.08161208 0.11678347 0.19306426 0.022408541 0.1702543 0.12771562 -0.048562843 -0.35930398 0.23472694 -0.121587545 0.084800884 -0.39853162 -0.0333845 -0.28825876 0.16113 0.021550775 -0.07221087 0.32222572 0.24991448 -0.041975796 0.0080017345 0.15426436 0.18244918 -0.0664361 0.046409275 0.3522997 0.11290378 0.14768413 -0.2896378 0.041897234 0.09633831
mis -0.37283275 0.116234325 -0.14397086 -0.28153527 0.17384633 -0.1042141 0.086467706 0.33443683 -0.1769327 -0.113059245 -0.34417158 0.06842065 -0.14621203 0.060571957 -0.16421904 -0.09955038 0.036636673 -0.12353959 0.05048955 -0.4011152 0.13881737 -0.048463617 0.41518903 0.04355138 -0.17152761 -0.18632436 -0.101972915 0.15156676 -0.50343686 -0.059614483 0.24645683 -0.1384076 -0.08111252 -0.6286717 0.2714001 0.13241813 -0.058342777 -0.4719405 -0.22214854 -0.26285914 0.04076213 -0.35009474 -0.24844699 0.0026366934 0.3736998 -0.46993485 -0.16170524 -0.16982953 0.3649916 -0.121891394 0.17186923 0.03545951 0.24252366 -0.2834315 -0.10843847 -0.35659233 -0.35052538 -0.38130507 -0.27825853 -0.19775541 0.34727746 -0.17365547 0.2238881 0.038708102 -0.39004758 0.17888162 0.49977025 0.3255796 -0.41255435 0.26541576 -0.26311347 0.3693814 -0.016452208 0.17765564 0.24657239 0.23325956 -0.33810106 0.42804208 0.12510204 -0.18048643 -0.37592503 -0.27807292 -0.16810995 0.15426864 -0.21230334 -0.24470568 0.46841374 0.4350482 -0.31385916 0.017580906 0.19051458 -0.07202647 0.16460836 -0.21895966 0.11466883 -0.06294244 0.18723606 -0.18521565 0.022642393 0.28354716
must -0.17292318 0.0925485 0.07730782 -0.19062075 0.082207054 -0.2707243 0.12654233 0.31576988 -0.08487228 -0.15769129 -0.07043892 -0.10335719 -0.069985576 0.07996579 0.107945845 -0.10489173 -0.057630304 -0.1629947 -0.054339673 -0.33153486 0.099644385 0.034534417 0.1693653 -0.13586104 -0.049675114 -0.021156603 -0.013129062 -0.02451192 -0.12096907 0.019184133 0.13813576 0.031885564 -0.0018696683 -0.23997834 0.005209555 0.07465174 -0.042592507 -0.1357593 -0.11163098 -0.21374609 0.021242574 -0.07449122 -0.0679817 0.031066686 0.14038077 -0.20601682 -0.076276846 -0.005359946 0.095961906 0.11832247 0.07469517 -0.17306964 0.050018825 -0.033534165 -0.041410156 -0.020487832 0.030814098 0.004280788 -0.1552702 -0.032496657 0.09618379 0.025147961 0.03134875 -0.013235793 -0.3616037 0.22308329 0.13423802 0.15010476 -0.22411112 0.13601576 -0.09090331 0.22236386 0.18223298 -0.058559313 0.041487698 0.08327108 -0.022117967 -0.0182661 -0.2019095 0.08195968 -0.24360098 -0.064841725 -0.18988116 0.23410536 -0.005716101 0.025153037 0.0864095 0.14175653 0.1295108 0.19045998 0.26452035 0.19432761 -0.06441689 0.014174774 0.23266692 0.13357095 0.15085024 -0.20691471 0.12536223 0.10161586
harriet -0.1478162 0.06714751 0.051627725 -0.13997832 0.10212172 -0.25725865 0.17435437 0.2502869 -0.120752975 -0.046673167 -0.08371241 -0.10489486 -0.06343379 0.08152252 0.08439178 -0.065709405 -0.08374056 -0.10226888 0.028003765 -0.34262404 0.16894616 0.044611126 0.17609572 -0.12646393 -0.026183797 0.0005102245 -0.008204018 -0.0027944504 -0.19048916 -0.00846061 0.19476809 0.07188089 0.054769844 -0.2021289 0.027726997 0.016026251 -0.109079316 -0.13637349 -0.11844457 -0.26825696 0.011215391 -0.07165656 -0.07504846 0.03523739 0.10309441 -0.1875047 -0.10965224 0.0048969127 0.086579844 0.09071162 0.052331414 -0.20448987 0.049648486 0.040811587 -0.01569523 -0.019721596 0.017125828 -0.005865076 -0.18844171 -0.048867386 0.07783741 0.037610106 -0.09271649 0.0045765094 -0.33748102 0.2434449 0.07943957 0.103165165 -0.22001083 0.16992119 -0.15717891 0.22805297 0.18499534 -0.1355993 0.039011456 0.07789622 0.05322646 -0.0120549435 -0.23662294 0.060297966 -0.21721733 -0.07880866 -0.22817959 0.23328926 -0.02512211 0.00074717816 0.100218914 0.11709653 0.095751725 0.08317588 0.2504079 0.19526523 -0.037404284 0.038480505 0.23394032 0.082029104 0.18680252 -0.20545116 0.1198994 0.12453241
much -0.09618744 0.09002233 0.110502794 -0.13396984 0.07105268 -0.2647269 0.16277927 0.28104845 -0.08771025 -0.106748156 -0.060380515 -0.12121034 -0.058340468 0.06421298 0.13999714 -0.0713859 -0.058802694 -0.11427177 -0.029628582 -0.34909797 0.117708795 0.06930578 0.14236113 -0.18879138 -0.039730668 0.058928676 -0.00077510404 -0.033963665 -0.14107382 0.04183911 0.09624889 0.051349968 0.04935525 -0.22448422 -0.02920931 0.027225077 -0.12124518 -0.11281518 -0.08030534 -0.23709737 0.0027977573 -0.0249155 -0.06253839 0.085587464 0.09774165 -0.21002786 -0.09212731 -0.012829269 0.07456736 0.1078342 0.054739896 -0.21164812 0.04526157 0.0034882082 -0.0026398345 0.031646643 0.028275173 0.05597553 -0.15703626 -0.048488725 0.057332303 0.03193694 -0.08559909 0.036750372 -0.3442418 0.26361144 0.07168585 0.12862273 -0.21524245 0.14366232 -0.09506527 0.21286589 0.22279584 -0.13753787 0.015348288 0.075904705 0.070232406 -0.09034455 -0.2655818 0.06745863 -0.2410496 -0.04502018 -0.21681026 0.26557887 -0.026146935 0.0321738 0.087679125 0.12700202 0.18352394 0.15422557 0.3061767 0.20439215 -0.062632374 0.07508088 0.24455246 0.1204536 0.15553975 -0.17715546 0.120859355 0.07651075
said -0.16906887 0.07950688 0.04423555 -0.16242318 0.057304263 -0.29982647 0.07897702 0.36058462 -0.12774754 -0.22021186 -0.075813286 -0.09406501 -0.052261528 0.09317612 0.17435138 -0.06293502 -0.018624969 -0.22004223 -0.09302456 -0.36985466 0.1016148 0.13153674 0.25150988 -0.15436603 -0.06301298 -0.05919856 -0.1086478 -0.020056238 -0.12168092 -0.039451648 0.1324796 -0.061210804 0.011241784 -0.37058094 -0.013189922 0.16424905 -0.04439568 -0.22395287 -0.15569545 -0.24076024 -0.042383317 -0.10538765 -0.034523405 0.01491125 0.22003882 -0.20136046 -0.08679478 -0.06615503 0.15644173 0.08922696 0.11124696 -0.123141155 0.065753296 -0.18526885 -0.07158871 -0.08027139 -0.0007321759 -0.04752431 -0.12978855 -0.10359303 0.0825432 -0.043474928 0.13121353 0.074570335 -0.39228755 0.26044905 0.15913065 0.21459939 -0.2868637 0.14484295 -0.036982145 0.21135348 0.12447677 0.01682615 0.19480799 0.052501578 -0.08612045 -0.0025389777 -0.13345556 0.09408953 -0.27245367 -0.07146081 -0.2001014 0.21141908 0.042486187 -0.012281405 0.16379927 0.16375802 0.07922568 0.19065084 0.2677152 0.15175414 -0.044759784 0.029289821 0.13660479 0.16858064 0.14957353 -0.1505934 0.052624613 0.16337977
one -0.15641154 0.045855843 0.013437902 -0.13617364 0.012813517 -0.3029783 0.15771425 0.29183432 -0.062010992 -0.088769846 -0.08768095 -0.09203137 -0.06266245 0.05609749 0.09884586 -0.05262625 -0.030058388 -0.18070906 -0.029785167 -0.34321463 0.1268247 0.08629115 0.15667275 -0.18280299 0.0125835715 0.019299483 -0.024055837 -0.04924312 -0.13984759 0.012368695 0.13398534 0.08212422 0.09781366 -0.19989388 -0.05060737 0.064749636 -0.12320905 -0.118679315 -0.12483622 -0.25808915 -0.022651006 -0.004098621 -0.03598509 0.09315843 0.13047478 -0.19739383 -0.11050591 -0.02016263 0.08097206 0.10008767 0.1102142 -0.20226806 0.053462256 0.0069422354 -0.0014660326 0.018584425 0.0010641757 0.00966627 -0.14137863 -0.033685096 0.07322366 0.032581426 -0.02864296 -0.039493028 -0.3733218 0.24628581 0.006537865 0.12356491 -0.23050743 0.15312538 -0.11068341 0.25388095 0.18197665 -0.14363118 0.041513346 0.0473641 0.009087633 -0.03359539 -0.245225 0.12827843 -0.25616622 -0.0044201873 -0.21773927 0.24237968 -0.02541994 0.027628532 0.04611381 0.10776931 0.16771436 0.15649521 0.2809883 0.22248897 -0.06654072 0.082723096 0.2877337 0.081538916 0.10128795 -0.13319035 0.104005754 0.063074745
thing 0.04536822 0.13729994 0.2809336 -0.20430109 0.07377844 -0.32001963 0.06248512 0.367191 -0.1274523 -0.17847995 0.018443 -0.200577 -0.0011574136 0.079274766 0.22618508 -0.07371599 -0.081709914 -0.062886834 -0.0018356311 -0.4427583 0.12807974 -0.0033516735 0.19226658 -0.19812104 -0.06202523 0.10187306 -0.03249867 -0.1208942 -0.00022135786 0.13811813 -0.027843518 0.0029370063 0.14775987 -0.28927904 -0.025279714 0.058321435 -0.18859068 -0.034991644 0.041727252 -0.258646 -0.020263933 -0.034056693 -0.047309835 0.20734265 0.012207888 -0.24003117 -0.031474713 -0.005216612 -0.045659695 0.20341288 0.074241325 -0.16782346 -0.07184803 0.07018055 0.07296517 0.016492125 0.058220226 0.13836235 -0.029469416 -0.094818786 -0.052394792 0.059250038 -0.06752069 0.07856177 -0.4422036 0.3226977 0.14166003 0.083284415 -0.12393721 0.13495515 -0.10048493 0.23443931 0.18953085 -0.09076498 -0.014771647 0.07365637 0.06073831 -0.1460975 -0.27759525 0.1617853 -0.2678087 -0.004600298 -0.22467756 0.35429424 -0.119842954 0.18343487 0.038802907 0.12692037 0.24675758 0.24035594 0.30520496 0.18516192 -0.0693537 0.09659161 0.2823126 0.11090231 0.232447 -0.20057368 0.13670756 0.0025592048
weston -0.22977863 0.04521171 -0.022050375 -0.1885833 -0.016004335 -0.3380149 -0.06480971 0.31610188 -0.1123298 -0.23065141 -0.051954627 0.0876084 -0.104046784 0.041974388 0.16958137 -0.037314404 -0.048841674 -0.3090928 -0.20263529 -0.32786414 0.004980708 0.0990507 0.29701322 -0.17916186 -0.010890023 -0.06254347 -0.35374984 0.078787126 0.0072402894 -0.010060195 -0.023476146 0.030548692 0.06583231 -0.2977568 0.094737954 0.15800847 0.006837399 -0.15041591 -0.26943567 -0.2462535 -0.27087948 -0.1431957 0.13977744 0.10207166 0.25607124 -0.34023967 -0.07443342 -0.052649032 0.25660262 0.080691464 0.100978605 -0.119541585 0.20019402 -0.088514656 -0.21076675 -0.046173956 0.09249749 -0.13876584 -0.19880064 -0.11081587 0.28493005 -0.04253717 0.19355232 0.03545544 -0.43098432 0.23245366 0.26803464 0.44022393 -0.25616848 0.12596697 0.06149328 0.21879289 0.09473501 0.04456171 0.23707098 0.17889445 -0.08650247 0.06891257 -0.06623195 0.09719555 -0.29321703 0.059199054 -0.27350208 0.14826395 0.102932766 -0.0830758 0.0073529086 0.15911038 0.08393335 0.10424716 0.3412855 0.18451254 -0.08498827 0.11466915 0.12965444 0.06549317 -0.051435918 -0.18393351 -0.059153575 0.21206973
every 0.017201465 0.09666066 0.33292758 -0.23961203 0.19899532 -0.17639953 0.09535862 0.4351766 -0.030198017 -0.10750746 -0.07108427 -0.22717406 -0.103095554 0.0581824 0.22378755 -0.18665962 -0.04180788 0.012765797 -0.023816967 -0.36280945 0.057946377 -0.025623297 0.110030666 -0.1273112 -0.036082562 0.18613994 -0.10248215 -0.06233252 -0.052941613 0.15654278 -0.05336366 0.028558394 0.14714886 -0.22637217 -0.11236731 -0.07014051 -0.23335214 -0.092924185 0.046282828 -0.26033777 0.04155263 0.069002286 -0.023995243 0.22898866 -0.090583384 -0.2663276 0.016518265 -0.041402277 -0.08498674 0.21438666 0.109865226 -0.29217708 -0.016291814 -0.08725149 0.12076397 -0.016197845 0.022068072 0.24245241 0.059216652 -0.060374685 -0.0909069 -0.009349838 0.050216 0.08205683 -0.45319006 0.306662 0.32042828 0.14463857 -0.28047487 0.13839403 -0.03834132 0.24709837 0.29967317 -0.16988078 -0.11594673 0.059800513 0.20707268 -0.28010568 -0.41684145 0.152966 -0.34703988 -0.05012162 -0.21805647 0.43252754 -0.06694093 0.16797923 0.13461418 0.019091127 0.20978577 0.25028145 0.36936328 0.1585791 0.08596469 0.05387116 0.31855145 0.14319885 0.24614029 -0.02892217 0.260689 0.09592681
elton -0.19042826 0.07103889 -0.010378919 -0.18069294 0.012352614 -0.3200949 -0.0060622613 0.29052603 -0.12614751 -0.14930761 -0.10007557 0.035052758 -0.1338541 0.052019514 0.16435789 -0.03812927 -0.025812764 -0.24863426 -0.15480013 -0.36322606 0.06861276 0.11402011 0.28951657 -0.13813682 -0.033862412 -0.013733926 -0.27319252 0.04570335 -0.0758762 0.034028575 0.06749537 0.031359054 0.08989213 -0.31725577 0.0792611 0.1099792 -0.046921957 -0.10707505 -0.21882585 -0.26215556 -0.20649506 -0.117425844 0.09272314 0.108617626 0.20836584 -0.3399601 -0.12344418 -0.030845629 0.23403041 0.07283128 0.08496816 -0.12723951 0.1431046 -0.07411968 -0.1416188 -0.013794838 0.06401753 -0.09988992 -0.21054801 -0.0832291 0.19377026 -0.033303365 0.11123061 0.06300755 -0.38012525 0.23750995 0.22476642 0.3479995 -0.23768708 0.13894954 -0.009360881 0.20336097 0.10794102 -0.02220418 0.19031423 0.14435777 -0.041452684 0.054430455 -0.109044544 0.061072566 -0.27721053 0.0018003883 -0.23962146 0.13197696 0.06194317 -0.05701103 0.07081722 0.15973176 0.091595195 0.081494436 0.33125392 0.16705064 -0.0778164 0.061527535 0.10676997 0.062924065 0.048093233 -0.17237839 -0.031904984 0.22941428
think -0.09038766 0.09908146 0.068135686 -0.15088467 0.066280015 -0.2644151 0.15601951 0.3328932 -0.08656723 -0.13267697 -0.080728546 -0.1420809 -0.0769854 0.043236453 0.11674277 -0.076285094 -0.018029021 -0.17148055 -0.03293785 -0.38356534 0.14407913 0.11441813 0.20865873 -0.1803912 -0.06497747 0.013386541 -0.06066228 -0.041664578 -0.15203246 -0.01750913 0.106973834 -0.01730317 0.0712158 -0.3283558 -0.046657328 0.064682074 -0.1128268 -0.146849 -0.10684438 -0.20572041 -0.0076780636 -0.04532724 -0.038737997 0.07920447 0.12583134 -0.20145932 -0.113161765 -0.042817004 0.13090762 0.119150646 0.117823 -0.18995734 0.05471854 -0.10695692 -0.014940855 -0.058823336 0.009214707 0.020514645 -0.14991133 -0.08624099 0.019326773 -0.01168375 0.009733735 0.055049744 -0.3757211 0.27239028 0.08676118 0.15266886 -0.2354492 0.13452065 -0.07913344 0.20624202 0.18612275 -0.09405313 0.08743282 0.02039976 0.030172318 -0.03571649 -0.22051553 0.10320702 -0.27267057 -0.04459888 -0.2172964 0.2031103 -0.037061572 0.015728416 0.15327987 0.13037394 0.11190238 0.12780154 0.30837056 0.18711828 -0.053700667 0.08124125 0.20927596 0.10442919 0.18916808 -0.12070175 0.04430869 0.13011585
well -0.12486374 0.104535036 0.06714701 -0.1370431 0.054691155 -0.27715918 0.108202145 0.36345372 -0.12212149 -0.15672317 -0.07516526 -0.1459333 -0.06435878 0.091378205 0.120138295 -0.079120725 -0.057278182 -0.17788215 -0.03861976 -0.38378572 0.08472025 0.09861869 0.2083622 -0.16250297 -0.09605931 -0.041026894 -0.06574187 -0.004156963 -0.15393107 -0.023229115 0.11804778 -0.06371343 0.061259933 -0.34575033 -0.04331836 0.10812051 -0.086288184 -0.2227805 -0.15016544 -0.19173269 0.0020041675 -0.07074873 -0.08121701 0.06949433 0.16824138 -0.18709628 -0.09709478 -0.099419534 0.14730786 0.10060209 0.10876712 -0.15237588 0.08005348 -0.1037771 -0.027543956 -0.058946036 -0.022921205 -0.017197259 -0.1422644 -0.0709009 0.07128361 -0.022366889 0.04353448 0.07028476 -0.36902556 0.23869613 0.14552212 0.17920934 -0.24643664 0.15140967 -0.077383295 0.21447016 0.14121175 -0.038516197 0.18017276 0.06355846 -0.03467802 -0.013212759 -0.15688358 0.07793661 -0.2776878 -0.035186972 -0.21938232 0.22060795 -0.036672104 0.0051928074 0.16420004 0.13999654 0.109109625 0.19782731 0.26721236 0.17980982 -0.06633449 0.050156176 0.1546609 0.12983066 0.18080173 -0.13690807 0.08005878 0.117676936
knightley -0.18659458 0.041844483 0.022508001 -0.1757097 0.08262618 -0.28019756 0.10879311 0.31831583 -0.06252976 -0.14207672 -0.10590683 -0.094218254 -0.07413471 0.11955048 0.032418102 -0.038193528 -0.06827321 -0.21462817 -0.048632074 -0.3157532 0.1371872 0.099956274 0.18448046 -0.10892354 -0.031420525 -0.0020567942 -0.04908389 -0.033472903 -0.17214975 -0.020742178 0.17354447 0.009233352 0.024206098 -0.28439602 0.04203575 0.092068315 -0.024738088 -0.19954349 -0.19545268 -0.28732118 -0.05528016 -0.1126007 -0.11601479 0.054791234 0.24263322 -0.18808281 -0.13046412 -0.070802905 0.16035701 0.10318217 0.06268341 -0.16649541 0.047153793 -0.07101082 -0.05569865 -0.004152533 -0.033416867 -0.108186394 -0.23912762 -0.031692844 0.15368573 0.034717876 0.04334953 0.027656712 -0.346626 0.2254823 0.036110062 0.17986418 -0.20673767 0.16895229 -0.06110993 0.25787064 0.12424556 -0.06970583 0.13219689 0.052265584 -0.0515822 -0.009925953 -0.13187584 0.05135387 -0.24428622 -0.082049005 -0.20484228 0.19397359 -0.036278352 -0.039254867 0.09824993 0.14068161 0.0705673 0.10172766 0.25316656 0.20123273 -0.028241124 0.062011916 0.17385933 0.13308774 0.08138926 -0.18248665 0.06974047 0.13230856
know -0.12074801 0.10483523 0.043509956 -0.17190173 0.030305073 -0.29336873 0.1456516 0.30896708 -0.09788882 -0.13157019 -0.08932337 -0.095648624 -0.050088264 0.07195179 0.12831087 -0.09549325 -0.023141887 -0.20035382 -0.05220673 -0.3980231 0.11485989 0.07626402 0.20092557 -0.1846715 -0.06685826 -0.020926004 -0.06535417 -0.02967382 -0.126205 0.0012475643 0.13335884 0.014811234 0.060852714 -0.31048754 0.0057464577 0.10302213 -0.11713629 -0.15090863 -0.12476584 -0.23409764 -0.03146085 -0.07798435 -0.01831553 0.08376615 0.14983705 -0.2314818 -0.12351386 -0.03769469 0.13626315 0.10097442 0.14357242 -0.14633672 0.079505295 -0.08957327 -0.0092568295 -0.043395497 0.01170633 -0.0030602433 -0.1917021 -0.074956685 0.06562362 -0.01646153 -0.009118132 0.038134888 -0.3551765 0.23669852 0.12714478 0.18725117 -0.24425879 0.13566455 -0.08205121 0.1985323 0.15631323 -0.04743613 0.12292604 0.06604149 0.0058321212 0.006142285 -0.1755058 0.11913562 -0.27793032 -0.009108552 -0.19849955 0.1913114 -0.016317876 0.005844861 0.12396471 0.15958168 0.1261398 0.16390288 0.32329622 0.17383115 -0.08522164 0.050823685 0.18130957 0.11291064 0.13908045 -0.13438106 0.058356248 0.10218105
little -0.16318212 0.061146706 0.07125555 -0.15093745 0.10929573 -0.2767597 0.16237505 0.28825593 -0.08891473 -0.10676986 -0.07160806 -0.08842376 -0.06424382 0.098844014 0.14283589 -0.07574653 -0.08706628 -0.14537552 0.01317991 -0.2837922 0.118250474 0.013920801 0.1483973 -0.1757053 -0.013293876 0.008827625 -0.02439215 0.008373425 -0.10147831 0.007925463 0.16766576 0.082829505 0.02236671 -0.15072669 0.03170995 0.0036992482 -0.062380727 -0.09294066 -0.10857215 -0.258115 -0.0288115 -0.05282348 -0.057255954 0.07347705 0.11728849 -0.19210663 -0.104301915 0.02427706 0.100164674 0.10883731 0.04453193 -0.17307 0.029899707 0.02102591 0.00039873482 0.018287335 0.020298587 0.03698879 -0.15419039 -0.00981792 0.089879915 0.06922536 -0.03498718 0.008527812 -0.35298294 0.22437188 0.10553796 0.15870306 -0.21115695 0.1689814 -0.122142926 0.18961734 0.19818766 -0.13290784 0.01372353 0.07177035 0.016484873 -0.021307131 -0.2446655 0.07569729 -0.25252298 -0.052964844 -0.2107159 0.26726604 0.024295745 0.029749673 0.060846835 0.12159541 0.12662984 0.12980385 0.27756208 0.20560247 -0.062219772 0.0687512 0.22779892 0.13853864 0.15994775 -0.20865518 0.15277973 0.08909253
good -0.10355348 0.09141754 0.042958207 -0.08539146 0.014786205 -0.2336547 0.22096035 0.26511943 -0.087553255 -0.046422195 -0.08007732 -0.089932375 -0.031206245 0.04384227 0.11410699 -0.09350526 0.013955185 -0.17011982 -0.05003227 -0.35317895 0.1530237 0.14841203 0.20922703 -0.20380928 -0.053747155 0.019926393 -0.010352304 -0.07244096 -0.17041066 0.015108314 0.12645558 -0.013609739 0.08439753 -0.26141 -0.07802193 0.049150612 -0.18581097 -0.14379503 -0.09891007 -0.2683938 -0.052447625 0.014955522 -0.040191356 0.12704688 0.077973075 -0.17599036 -0.1567061 -0.0388409 0.10433418 0.10551036 0.07492429 -0.24788779 0.0056975083 -0.074028365 0.028830117 -0.016527712 0.009804174 0.009310448 -0.15902123 -0.102032 0.014770317 -0.04388106 -0.069225 -0.0015604212 -0.37334675 0.2860451 -0.02002708 0.16248971 -0.26409206 0.15789382 -0.123547286 0.23061582 0.21494076 -0.17487562 0.019454272 0.041172985 0.035295825 -0.02382558 -0.29439992 0.08016643 -0.2989136 -0.013139432 -0.22702779 0.1970681 0.013827998 -0.023734532 0.09818491 0.074196115 0.12500024 0.06731732 0.2908524 0.20475122 -0.09899836 0.0899853 0.20828201 0.08154261 0.16627227 -0.092518285 0.039463475 0.0871197
never -0.105604626 0.09205588 0.07126746 -0.12431383 0.054447893 -0.27480033 0.12935704 0.33137712 -0.07864193 -0.108426064 -0.0713457 -0.11189321 -0.05897651 0.102839746 0.08385971 -0.10457532 -0.09538167 -0.13765827 -0.01621183 -0.34696636 0.10073746 0.06769564 0.1214233 -0.13555981 -0.050165765 -0.016380487 -0.02961252 -0.048341088 -0.17925045 0.0056860507 0.1478692 0.008821414 0.055697624 -0.26345578 -0.007686748 0.031985357 -0.117604464 -0.14231631 -0.08164298 -0.26121584 -0.006233053 -0.053559493 -0.08124278 0.08318468 0.10690222 -0.23168464 -0.12130546 -0.054089908 0.108894765 0.13152988 0.101547085 -0.20441553 0.047211148 -0.035152853 -0.02560722 0.021233417 0.034966692 -0.009839384 -0.18932363 -0.07035894 0.069011815 0.042691033 -0.03313294 0.0041713165 -0.3782277 0.25485078 0.09205784 0.12620404 -0.19925225 0.15624258 -0.08753022 0.2294654 0.16439123 -0.10997585 0.12488742 0.08515493 0.001834518 -0.04916084 -0.23019688 0.09526035 -0.2363665 -0.04377073 -0.20500377 0.22255403 -0.03513071 0.004992592 0.12883179 0.10044317 0.10768353 0.17663856 0.27469736 0.19653201 -0.036748618 0.06403198 0.20604704 0.103441134 0.14868896 -0.14733897 0.084353305 0.07709968
say -0.043501757 0.15479644 0.15862016 -0.14384498 0.035260648 -0.24803996 0.10509864 0.36016133 -0.09713315 -0.1810654 -0.04286777 -0.13297275 -0.03419425 0.118579865 0.13346004 -0.12376027 0.019516591 -0.17679685 -0.06623948 -0.4195898 0.094291866 0.03622721 0.19377553 -0.1785402 -0.09823676 0.016647121 -0.06744224 -0.06708441 -0.07137148 0.02890483 0.11479368 -0.054575015 0.06932094 -0.40315464 -0.05415473 0.08009445 -0.13360718 -0.19346139 -0.06856732 -0.2628914 -0.02224195 -0.057572164 -0.045532 0.07386336 0.11142259 -0.22533505 -0.08511364 -0.062237144 0.06965909 0.13569005 0.16944177 -0.12012672 -0.009812235 -0.13633014 -0.0016152465 -0.112132564 -0.005736152 0.019359548 -0.14937611 -0.12523937 -0.009041505 -0.0011651019 0.024310568 0.11829342 -0.38498017 0.26799223 0.21143907 0.16321415 -0.28236926 0.12699246 -0.04695464 0.2308986 0.1411415 -0.050797883 0.13881412 0.022050845 -0.0004642869 -0.030736554 -0.18817198 0.13865416 -0.31146705 -0.07738406 -0.14562689 0.30092803 -0.079003416 0.026161369 0.16678385 0.16507246 0.118146494 0.2521643 0.37538704 0.15707995 -0.07307481 0.04610841 0.16259745 0.15314558 0.1503061 -0.0864014 0.048414346 0.0983297
might -0.124380425 0.09156019 0.061881453 -0.11992398 0.04372756 -0.29548168 0.16307518 0.28525043 -0.08308538 -0.08848129 -0.10722566 -0.117408544 -0.056022372 0.06180421 0.10226664 -0.06207381 -0.1007681 -0.12732038 -0.0067988336 -0.30977118 0.1387483 0.058421634 0.123991825 -0.15682016 0.0053075836 0.055922974 -0.009667953 -0.04574373 -0.13703726 0.051212717 0.12247236 0.08071133 0.050967157 -0.20998923 -0.019853547 0.032586575 -0.1090184 -0.117971115 -0.11061338 -0.24025261 -0.032339 -0.017973218 -0.07767609 0.08546408 0.086984806 -0.216439 -0.09476837 -0.023123145 0.045483246 0.09941061 0.09465441 -0.25188553 0.01627462 0.027127001 0.0074710483 0.06301479 -0.0016925305 0.019823493 -0.18534602 -0.055464968 0.051616177 0.030113196 -0.101132005 0.008043473 -0.3458697 0.2523112 0.023865815 0.12138101 -0.21417953 0.19612776 -0.1466865 0.23087202 0.19450739 -0.16836981 0.012437533 0.08610361 0.021872872 -0.070573114 -0.26419786 0.13830882 -0.24028821 -9.153807e-05 -0.20151246 0.20447966 -0.04473822 0.025150962 0.083452135 0.095951445 0.14835458 0.14935394 0.28537703 0.20886244 -0.07225753 0.06916888 0.26443136 0.07928276 0.16339093 -0.16775894 0.1086854 0.0803622
woodhouse -0.2546107 -0.004100006 0.055549227 -0.21673365 0.044074584 -0.31268203 0.015618755 0.3372988 -0.12745063 -0.24859391 -0.25489026 -0.13120534 -0.10523007 0.15498066 0.055555034 -0.0042403825 -0.10174047 -0.32550055 0.07441397 -0.35206974 0.08624322 0.12541218 0.17693143 -0.082901806 -0.17034984 -0.0702689 -0.06283527 0.19858785 -0.18906932 -0.048973132 0.32138783 -0.049164806 -0.23420748 -0.40757805 0.08469156 0.111376226 0.020409834 -0.3348539 -0.23033974 -0.12478902 -0.024795529 -0.19005284 -0.12936263 -0.26639265 0.2918788 -0.29263097 -0.16481724 -0.006540153 0.295852 0.14447829 0.069229044 0.029695705 0.11326493 -0.1737242 -0.22481671 -0.05385879 -0.109232135 -0.0685007 -0.18776652 -0.11296505 0.042209893 0.016789684 0.053316824 0.20104364 -0.34967077 0.17566726 0.18344784 0.10575873 -0.17371221 0.25852183 -0.0048290514 0.23947486 0.0064327195 -0.013739493 0.4253408 0.086316474 -0.13733214 -0.0038582284 0.041455757 0.03989198 -0.18108799 -0.1353064 -0.14452529 0.07558758 0.083496526 -0.09925067 0.21023023 0.23261476 0.0408077 0.2816966 0.25512627 0.022385605 -0.01726207 -0.08518516 -0.025848236 0.2399256 0.36582255 -0.26693925 0.11345413 0.3112025
time -0.22124703 0.073181584 0.041094624 -0.17232332 0.054172605 -0.30244678 0.14489628 0.26481313 -0.07767926 -0.1404768 -0.05779743 -0.07232823 -0.06969237 0.08939319 0.07920277 -0.04322908 -0.08474186 -0.18352827 -0.048587464 -0.3022526 0.06729927 0.025927685 0.12523447 -0.14753559 -0.031983837 -0.026822755 -0.023852454 -0.015726417 -0.1158328 -0.0022947458 0.17427175 0.12558 0.012092011 -0.15575238 0.033266935 0.049379393 -0.025242642 -0.14318763 -0.14113165 -0.22753578 -0.039935365 -0.07532344 -0.05419791 0.010182494 0.19442676 -0.21760131 -0.084523104 -0.0094133895 0.12576741 0.102798484 0.084702626 -0.12935038 0.09149844 0.012465528 -0.05470975 0.042419683 0.023042966 0.011313733 -0.18234807 0.016617157 0.14266478 0.035810057 -0.031793177 -0.02097268 -0.33064336 0.18425407 0.076479435 0.13129604 -0.21187045 0.18095677 -0.117264636 0.22055799 0.16298719 -0.096716605 0.07134395 0.09147215 -0.022487588 -0.028354637 -0.18911369 0.09523012 -0.20914188 -0.04975394 -0.22234286 0.2614138 0.006259255 0.0085208295 0.059941493 0.14201279 0.14457482 0.19005287 0.26339573 0.20013365 -0.050813932 0.053517863 0.23656924 0.100985736 0.14710395 -0.2325122 0.16157652 0.062188234
jane -0.08381077 0.13434105 -0.03190282 -0.23354897 0.047843345 -0.24453495 0.038460582 0.41189772 -0.092433095 -0.14909586 -0.25491098 0.0067620273 -0.10337042 0.06401145 -0.091149755 -0.0848886 0.083669506 -0.15019049 -0.05609787 -0.44700646 0.107966796 0.10707297 0.22824857 -0.123733155 -0.09527959 -0.07125803 -0.13063471 -0.033687446 -0.30635342 0.12009137 0.1613185 -0.08767281 -0.060190238 -0.579401 0.080172 0.1378259 -0.16387907 -0.370757 -0.0992512 -0.3925431 -0.019321056 -0.21502183 -0.05031983 0.07015654 0.25122476 -0.38515678 -0.15954508 -0.2059722 0.1558441 0.0035634595 0.12511422 -0.12343607 0.035623036 -0.17274716 -0.067949265 -0.13628219 -0.16716173 -0.20307961 -0.28801888 -0.13552526 0.2347028 -0.09400507 0.109427325 0.048449196 -0.37860882 0.30280486 0.2892546 0.16132993 -0.34091625 0.12923978 -0.20051499 0.26791438 0.04705852 0.022973286 0.25596416 0.09721125 -0.28307155 0.2125702 -0.049036957 0.0019236535 -0.27066684 -0.035877872 -0.13508481 0.20261791 -0.14793909 -0.08396072 0.30706835 0.27317625 -0.08794176 0.11048652 0.20092288 -0.0018050264 0.060853194 -0.076999985 0.07533876 -0.026357304 0.027418768 -0.10292618 -0.06332805 0.2052977
quite -0.13924055 0.06908589 0.026105557 -0.12882581 0.07229528 -0.26636496 0.13822232 0.29509497 -0.12100649 -0.061180916 -0.11985212 -0.08760643 -0.05079754 0.08327394 0.099376984 -0.076466516 -0.04668375 -0.1890945 -0.004500335 -0.3518471 0.13946003 0.07021284 0.19894281 -0.1626764 -0.079770274 -0.048178975 -0.019466456 0.0026469766 -0.17557797 0.032616027 0.17371029 0.007101598 0.04575882 -0.27041453 -0.004992107 0.06426797 -0.1219755 -0.15747714 -0.12338038 -0.22084893 -0.026312733 -0.07011962 -0.06855992 0.04621115 0.14654936 -0.2041075 -0.113334425 -0.035539825 0.13788216 0.111115724 0.09261985 -0.14617586 0.042954173 -0.030052144 -0.025225747 -0.002385675 0.0026247045 -0.0074975127 -0.2221354 -0.097072676 0.053154282 -0.013696766 -0.059921164 0.04521729 -0.3710524 0.2439788 0.10000966 0.117222846 -0.2436337 0.1834792 -0.099094085 0.20379159 0.1501709 -0.11063833 0.10658136 0.04106488 0.015547805 -0.0064351927 -0.18385564 0.10297262 -0.23855223 -0.024020806 -0.19183938 0.19261335 0.00040647894 -0.006512969 0.0890269 0.16002272 0.107288584 0.16532983 0.28981802 0.14279822 -0.072868854 0.031983063 0.14325504 0.11492768 0.18965514 -0.17008351 0.08280428 0.11658974
great -0.14006901 0.043020133 0.029594367 -0.11858232 0.07150533 -0.24538775 0.24421217 0.2432811 -0.027860433 -0.075332776 -0.040429533 -0.09730079 -0.06771149 0.11241776 0.0711834 -0.097031526 0.010614125 -0.2267313 -0.072469905 -0.29300976 0.10360363 0.19499294 0.17470922 -0.1773781 -0.07181125 -0.042277865 -0.08570952 -0.062210765 -0.17358433 -0.023020923 0.14501905 -0.013646172 -0.02758593 -0.28078195 -0.07659617 0.030734535 -0.12368618 -0.1022983 -0.07331587 -0.30267864 -0.10246095 -0.06264735 -0.08919728 -0.00938338 0.15371642 -0.18502247 -0.21000803 0.047420572 0.1857886 0.15770432 -0.010422626 -0.21014893 0.049203265 -0.11832992 -0.013595154 -0.05431135 0.05300436 -0.03589089 -0.14303154 -0.06451333 0.010340079 -0.07698448 0.0005732989 -0.007273795 -0.41352218 0.24796546 -0.05222528 0.17538248 -0.2281082 0.13947754 -0.070773594 0.27079263 0.22042765 -0.21036808 0.04156014 0.021895519 -0.051627997 -0.025155315 -0.26226774 -0.005910541 -0.2891859 -0.072872184 -0.1574251 0.2149506 0.082100414 -0.102276266 0.0786933 0.09245829 0.1757966 0.11649798 0.29044038 0.20733294 -0.050332688 0.03386286 0.20443758 0.19152714 0.1374256 -0.122331135 0.009051326 0.11729331
thought -0.1436131 0.06274774 0.039054796 -0.14485417 0.04896758 -0.2920371 0.14335372 0.28608507 -0.085051075 -0.10379056 -0.09581266 -0.0984424 -0.04445387 0.09490714 0.06661026 -0.057580225 -0.060368195 -0.16956168 -0.020884888 -0.32073557 0.15087019 0.078520894 0.16767612 -0.13381344 -0.027991539 -0.0034934622 -0.036343668 -0.03166865 -0.15074869 0.01841418 0.17189378 0.048499595 0.05743428 -0.26182806 0.006438263 0.06256879 -0.098353945 -0.16173597 -0.12999302 -0.27845195 -0.04369316 -0.048055954 -0.06848621 0.051797807 0.15059705 -0.1965185 -0.115019634 -0.04613258 0.1130232 0.10633245 0.07225647 -0.18696791 0.04520856 -0.046906993 -0.0128333345 -0.0010264416 -0.017769523 -0.019636674 -0.19386026 -0.04924233 0.09316935 0.0064066034 -0.04829973 0.029996697 -0.36641118 0.22567147 0.05309075 0.12901866 -0.20275687 0.1961746 -0.095787 0.20901348 0.17899257 -0.104227 0.09623104 0.070096806 -0.0006707268 -0.05307006 -0.23244624 0.08976405 -0.237273 -0.056845177 -0.22036768 0.23629728 -0.036189564 -0.032550808 0.120834306 0.11338918 0.1125846 0.14150827 0.27082235 0.20050508 -0.052949496 0.05349137 0.19635046 0.0997826 0.13644117 -0.19602816 0.10376179 0.106886744
friend -0.17803662 0.05277749 0.03814236 -0.154972 0.08517466 -0.27525148 0.12013757 0.26518586 -0.1205422 -0.10236668 -0.12909167 -0.09053003 -0.0727322 0.09142942 0.092355534 -0.061586663 -0.060048718 -0.20167884 0.004678824 -0.34529507 0.13193737 0.06854291 0.18441434 -0.13501674 -0.047709912 0.004754824 -0.034868665 0.056427117 -0.16317485 0.0051372848 0.17948067 0.051746376 -0.024689125 -0.25575995 0.05855156 0.04145122 -0.083106086 -0.1716007 -0.13298535 -0.1976777 -0.059793286 -0.08434026 -0.054081343 0.008112278 0.15531547 -0.2352109 -0.1445642 0.02258009 0.14441209 0.10350447 0.08853463 -0.12933317 0.047076393 -0.01573058 -0.053510427 -0.03011562 -0.020963527 0.01594064 -0.17671199 -0.052577075 0.05718398 0.0141006615 -0.043858808 0.05190412 -0.34329733 0.20427929 0.086388156 0.1338095 -0.21445036 0.20496449 -0.101963826 0.24177329 0.14200132 -0.11156238 0.09514517 0.059657376 0.0011421817 0.01718132 -0.16722503 0.08010878 -0.23551708 -0.071945205 -0.22528808 0.16932043 0.0013234555 0.011492734 0.10052995 0.15493111 0.111312926 0.1476856 0.24451852 0.1628578 -0.06191321 0.026630593 0.17304713 0.11699587 0.21870838 -0.22365552 0.09413363 0.14799447
nothing -0.12292911 0.10910542 0.07665061 -0.11199966 0.040989857 -0.2949913 0.16770017 0.2696592 -0.10791745 -0.08278319 -0.06133105 -0.12648506 -0.07463352 0.06211723 0.11408812 -0.094127275 -0.081413455 -0.17293924 -0.016907293 -0.36702642 0.1423822 0.04388018 0.15425721 -0.16646583 -0.035960764 0.025224393 -0.025195861 -0.036142692 -0.16129895 -0.0075943433 0.17196052 0.040073983 0.077785045 -0.23831463 0.0046595223 0.018091304 -0.095834725 -0.089292355 -0.11915633 -0.21565738 -0.04101765 -0.05682328 -0.05153031 0.08647093 0.07231091 -0.2361669 -0.08705192 -0.0045561977 0.09950276 0.11316246 0.0840736 -0.1837787 0.04725746 0.032248117 -0.042077724 0.02209429 0.0497275 0.01484564 -0.21069773 -0.0361605 0.055924073 0.022923533 -0.07758925 0.025609413 -0.35341057 0.24021725 0.05814926 0.13788101 -0.17636913 0.14257166 -0.12357525 0.2086655 0.21253578 -0.119891755 0.07996968 0.0736597 0.034557614 -0.036606018 -0.22481929 0.07636189 -0.23698282 -0.034543812 -0.22728902 0.21177049 -0.05066799 0.007829238 0.06908082 0.11306787 0.16526867 0.14045103 0.2818117 0.21041891 -0.08455472 0.065559134 0.2506931 0.10632027 0.14644329 -0.1805464 0.07918788 0.08310465
day -0.2807357 0.01828945 0.072834976 -0.19366993 0.051086996 -0.3470485 0.060742453 0.25759462 -0.020052707 -0.20523849 -0.049668204 -0.07701419 -0.056732986 0.14836532 0.031529773 -0.031978693 -0.1264772 -0.22192256 -0.009830052 -0.23072283 0.06834327 -0.0096407235 0.08076227 -0.15288395 0.034755178 -0.034435015 -0.06618722 -0.011970659 -0.08227016 0.048482012 0.15790677 0.19666915 -0.006032238 -0.12648892 0.02980956 0.09294596 0.01582436 -0.17357787 -0.17085007 -0.2700124 -0.028354244 -0.09823041 -0.05561617 -0.011010719 0.2579743 -0.20931178 -0.062419936 -0.045080688 0.11094753 0.094348155 0.07717961 -0.09369986 0.09164369 0.039590176 -0.11114691 0.086046286 -0.0030780113 -0.010362804 -0.15395293 0.03194215 0.20937012 0.059990734 -0.0011029425 -0.047222145 -0.36138672 0.14460282 0.064111054 0.105663285 -0.15321177 0.22435726 -0.11665092 0.26795283 0.113549784 -0.063371286 0.11204648 0.123464584 -0.10817422 -0.040945847 -0.13408853 0.15048312 -0.20384794 -0.05120604 -0.21244551 0.29656368 -0.02248504 0.012581525 0.023910029 0.14049003 0.17610279 0.26292408 0.24030964 0.20672049 -0.029630613 0.031298276 0.27265397 0.107974246 0.051944718 -0.26307008 0.20285223 0.030472767
fairfax -0.08982251 0.008280464 -0.044905253 -0.2233647 -0.0072210478 -0.42994195 -0.059852343 0.5112704 -0.18505672 -0.3663798 -0.27759144 -0.0672278 -0.1887037 0.25520802 0.0551488 0.027782284 -0.058249183 -0.36638728 -0.006519034 -0.36131006 0.051828653 0.19379732 0.25166145 -0.07328305 -0.16897522 -0.10258136 -0.022770397 0.082333274 -0.23161177 0.09498198 0.29869476 -0.16993774 -0.21877691 -0.63548255 -0.013651485 0.1791518 -0.15851448 -0.4298013 -0.17443775 -0.23122914 -0.12166931 -0.17716561 -0.08709201 -0.16399637 0.40579244 -0.27876595 -0.18294238 -0.11248118 0.26839083 0.13269074 0.09441922 0.04143985 0.03479276 -0.33958012 -0.23199622 0.00828159 -0.18762451 -0.15553766 -0.20849377 -0.19830298 0.0047994824 -0.05135638 0.07679354 0.29883364 -0.37655622 0.2800704 0.11273455 0.13231398 -0.18370472 0.22718252 0.08821709 0.23236091 -0.017842766 0.016414603 0.6291028 0.02914802 -0.2605895 0.0109963 0.112905905 0.08188971 -0.14567901 -0.13028486 -0.08676263 0.0030614203 0.13921115 -0.11571035 0.30297282 0.12063687 0.11515151 0.3068999 0.22406247 -0.07555516 -0.028645152 -0.10178147 -0.1325055 0.23328283 0.2640788 -0.34702227 0.04113408 0.2825249
dear -0.119346805 0.050302964 0.031111771 -0.21659084 0.06227352 -0.29617822 0.050544642 0.36514956 -0.120122425 -0.24495625 -0.101302885 -0.08718669 -0.092466295 0.10658175 0.13474509 -0.030943956 -0.03470207 -0.24730133 -0.04506786 -0.4031534 0.05698698 0.08897403 0.2393645 -0.13218139 -0.10276802 -0.061793987 -0.099479996 0.082552835 -0.14136073 -0.015719246 0.17399324 -0.08894623 0.007534249 -0.4226901 0.04252446 0.14153433 -0.061459847 -0.24555348 -0.14757393 -0.17799802 -0.047339816 -0.16203195 -0.053462874 -0.027245002 0.2472123 -0.26029536 -0.115541466 -0.03413096 0.21740611 0.15026863 0.11642004 -0.050988723 0.12630434 -0.16522798 -0.077676624 -0.086116076 -0.053933475 -0.023841089 -0.18600193 -0.06852397 0.06819154 -0.013156511 0.10150814 0.12598827 -0.3717312 0.22833087 0.22430415 0.19094731 -0.2561923 0.15216221 -0.013370877 0.21018818 0.10305694 0.0062700594 0.23973356 0.04906976 -0.0630595 0.015945751 -0.04481676 0.05635231 -0.23844837 -0.08984023 -0.21442975 0.15868494 0.022689307 -0.0014347666 0.1686213 0.20675439 0.07525919 0.22642437 0.26803872 0.114357725 -0.043050125 -0.00516025 0.050909773 0.14553864 0.23370656 -0.21406598 0.087857515 0.17846906
churchill -0.1852855 -0.22316968 -0.11975661 -0.24874741 -0.08687834 -0.36829653 -0.23889656 0.6131343 0.06799344 -0.32763636 -0.0886583 -0.10481911 -0.027169157 0.32803762 0.103357986 -0.1350219 -0.12431859 -0.057419892 -0.12210903 -0.20618312 0.30825448 0.22955829 0.046113294 -0.0070623346 -0.032936994 -0.28482312 -0.015796935 -0.28040907 -0.09197578 -0.0062698936 -0.22653946 -0.08475682 0.04728578 -0.563652 -0.078102455 0.36541563 -0.16911334 -0.49341682 -0.07143033 -0.2869659 0.118313156 -0.13415194 0.19361363 -0.13301946 0.28281307 -0.087352626 0.017024899 -0.15524374 0.24083264 -0.020958383 -0.09037045 -0.3191277 0.15305012 -0.21392754 0.022889357 -0.069656864 0.1544689 -0.28427437 0.20427121 -0.3715953 0.19819215 -0.07366658 0.16445266 -0.03273904 -0.6260345 0.5398649 0.06776946 0.14650883 -0.40877998 0.17292376 0.2489717 0.27110624 0.226792 0.036101148 0.45216584 0.37719655 -0.20152295 -0.05495359 -0.22478753 0.21364942 -0.35864496 0.07549307 -0.107065745 0.40534115 0.28710535 -0.042947754 0.16940106 0.17254479 0.16245502 0.3364328 0.26068678 0.06368697 0.15150447 -0.029683689 0.0385215 0.23136178 -0.16298428 -0.17948213 -0.09214524 0.29813942
alway -0.10258496 0.07329239 0.06875381 -0.15897422 0.037206024 -0.26882696 0.12381321 0.31069714 -0.08137181 -0.123861015 -0.079621054 -0.09591443 -0.06963225 0.10233933 0.089315124 -0.08321983 -0.060924347 -0.16634475 -0.021882154 -0.3258749 0.119322546 0.065614775 0.17235366 -0.1751055 -0.04805122 -0.025138915 -0.007530385 -0.0074074585 -0.12621576 0.041556668 0.15081085 0.029468317 0.030982072 -0.27075118 0.014168027 0.036732875 -0.11597242 -0.17009889 -0.120478794 -0.23098859 -0.047911886 -0.052814927 -0.046020195 0.051129505 0.1423568 -0.2109411 -0.10834731 -0.02373696 0.115210176 0.12607145 0.08863369 -0.14692381 0.0303552 -0.0541505 -0.0065806746 -0.0048854216 -0.002018331 0.023535931 -0.1777309 -0.055575784 0.054595612 0.02703634 -0.03163769 0.014460127 -0.37290734 0.2523999 0.0911706 0.1353268 -0.22946842 0.16670562 -0.10969593 0.21687412 0.17906933 -0.1014189 0.07795687 0.067255884 0.011767618 -0.04182295 -0.20790032 0.10338191 -0.26290548 -0.0386708 -0.21515527 0.22127612 -0.01885613 0.0112422155 0.09203622 0.10954962 0.1506146 0.19393425 0.2663797 0.15649474 -0.056005277 0.03085804 0.18370095 0.116140835 0.16621484 -0.17137311 0.09461413 0.07850122
may -0.13814497 0.12872542 0.033908155 -0.14779134 0.037223913 -0.24995524 0.17768393 0.30399275 -0.085296005 -0.09016307 -0.06898465 -0.12782139 -0.06943983 0.07759332 0.09005218 -0.08227954 -0.07967115 -0.15838021 -0.033547822 -0.37759772 0.0992752 0.044455133 0.1499583 -0.14913073 -0.05358242 0.0062980237 -0.03701464 -0.0017993909 -0.14230151 0.007414441 0.14272097 0.04892947 0.052508857 -0.24718773 -0.0023689202 0.076523736 -0.07994836 -0.10843498 -0.14786385 -0.20711231 -0.04807808 -0.043702696 -0.023116896 0.030957235 0.14285596 -0.24469145 -0.08513543 -0.007949897 0.120674774 0.1416822 0.085296884 -0.18132417 0.035110485 -0.022515548 -0.03378139 -0.023870114 0.020256646 0.03075378 -0.15833455 -0.038170006 0.053593915 0.008939603 -0.04959115 -0.0041349223 -0.35843888 0.21850777 0.092621475 0.17141767 -0.19768846 0.15947245 -0.095965914 0.22338845 0.18610384 -0.085446246 0.0871756 0.06419917 0.02062024 -0.028073693 -0.20804441 0.09833664 -0.25237513 -0.052659314 -0.22925822 0.17896691 0.002231427 0.004071097 0.07148087 0.1195707 0.14883585 0.16409424 0.24575777 0.18347864 -0.06481186 0.03333393 0.23892796 0.10113909 0.19218488 -0.15302196 0.113211475 0.087668225
man 0.00038574636 0.05505182 0.02127733 -0.063660845 -0.17871627 -0.21623747 0.34477958 0.2546684 -0.13096848 0.111435555 -0.13701877 -0.105152994 -0.11195461 -0.19404346 0.071590185 -0.0802437 0.064850375 -0.10388954 0.0058071753 -0.46960905 0.17568152 0.29679337 0.3329835 -0.32304496 0.09786733 0.25214577 0.02660471 -0.20981607 -0.3412038 0.1616904 0.06845899 -0.014838507 0.22187619 -0.3609967 -0.2498149 0.014512495 -0.5016467 -0.107032835 -0.10125308 -0.25021583 -0.18658759 0.17096578 0.053494893 0.4081397 -0.04679424 -0.3031948 -0.089475416 -0.16340896 -0.036923412 0.056088537 0.21139899 -0.4775347 -0.061100576 0.010766271 -0.03845269 0.057435725 -0.11723485 0.1545357 -0.21295156 -0.18691316 -0.03986221 -0.036693584 -0.16374667 -0.033637404 -0.3804148 0.44512668 -0.3457585 0.11287639 -0.21947372 0.16996036 -0.18035708 0.36884046 0.29868296 -0.34588796 -0.002253099 0.031864777 0.07738506 0.017331347 -0.48841506 0.29954413 -0.21314421 0.09395402 -0.43682706 -0.054261588 -0.043439012 0.04811325 0.12266011 -0.07181062 0.067306936 -0.110552266 0.29785222 0.18868305 -0.25406012 0.08804295 0.30720183 -0.0067301905 0.3363755 0.115249105 -0.1579358 -0.014603266
see -0.16440281 0.053355914 0.05651978 -0.1599869 0.04780884 -0.29778045 0.08376857 0.3370657 -0.07145412 -0.17694336 -0.084909394 -0.12665778 -0.09005291 0.12547025 0.10251559 -0.082546845 -0.08335854 -0.19101045 -0.025703548 -0.32921612 0.11612787 0.053537615 0.17766891 -0.15238033 -0.049028885 -0.052471407 -0.039712273 -0.022131665 -0.100633144 0.030022541 0.1488241 0.030607319 0.02766364 -0.29083052 0.003431211 0.09003956 -0.049485117 -0.18267265 -0.1217818 -0.22776237 -0.01022633 -0.09186174 -0.037648078 0.016202148 0.18183541 -0.19876891 -0.073402725 -0.054996774 0.16185328 0.10795949 0.10986698 -0.12752676 0.067718655 -0.087917596 -0.050817735 -0.008789055 -0.0015553662 0.00368879 -0.16137722 -0.058176752 0.085063696 0.033049826 0.045581833 0.04096252 -0.39289767 0.21161856 0.11115034 0.17266098 -0.23332182 0.17983216 -0.04310506 0.20046741 0.13541752 -0.036343656 0.12875743 0.07540289 -0.024939176 0.0011852382 -0.13537343 0.117587276 -0.24497071 -0.07597039 -0.18682015 0.22359776 0.0116293 0.011441856 0.13118364 0.14702165 0.13367222 0.21008979 0.27679864 0.15247323 -0.07496369 0.047198616 0.15755755 0.15320413 0.14934424 -0.22005554 0.08630234 0.13348517
soon -0.24405414 0.06304573 0.026481152 -0.18859175 0.06007431 -0.3119145 0.07395194 0.25977197 -0.08589237 -0.20372605 -0.06740961 -0.093250826 -0.07557118 0.123562604 0.06486604 -0.044326644 -0.076647304 -0.23928696 -0.013258002 -0.26293087 0.118768886 0.06332654 0.17017396 -0.12823012 -0.06591536 -0.05197108 -0.08181577 0.031311598 -0.12707111 -0.02437776 0.18214427 0.059422992 -0.018318916 -0.21617931 0.04782947 0.10436765 -0.0028049767 -0.21604577 -0.20501469 -0.23355253 -0.044515796 -0.10666667 -0.099807665 -0.02113132 0.23813121 -0.20468517 -0.06625585 -0.059533738 0.15158546 0.08187868 0.057468336 -0.07955921 0.10563517 -0.040304366 -0.060477704 -0.021868957 -0.042092636 -0.07132536 -0.21607251 -0.054096498 0.16697805 0.03030098 0.015773967 0.051157158 -0.3566441 0.1889395 0.106872335 0.14803022 -0.22248091 0.20798767 -0.06664168 0.22482264 0.12136671 -0.035848215 0.15458792 0.11548907 -0.09988236 0.0076489705 -0.12817895 0.06200123 -0.21417424 -0.07715191 -0.19995794 0.25668466 0.0060336823 -0.025048729 0.12502919 0.19545697 0.09459573 0.20310465 0.2426295 0.16515963 -0.023347285 0.03438109 0.1879278 0.13498132 0.09376437 -0.22785747 0.13901788 0.115461364
without -0.20342565 0.08903009 0.010319226 -0.1095375 0.055966627 -0.2887435 0.17289782 0.23343807 -0.053014934 -0.003297064 -0.10715334 -0.06351657 -0.13251452 0.066876546 0.061009753 -0.087509155 -0.16456313 -0.14438763 0.056308307 -0.30548307 0.13603786 0.03494108 0.093135364 -0.13262047 0.025914542 0.035850935 0.035697255 0.01273881 -0.19953501 0.049008995 0.2310866 0.1363053 -0.01569059 -0.09156546 0.03682703 -0.050763544 -0.0896528 -0.069798276 -0.11213542 -0.2342996 -0.027256189 -0.0020139094 -0.081770964 -0.003170307 0.09792683 -0.24146241 -0.13904093 0.042293355 0.079511404 0.10838229 0.052404333 -0.22442122 0.026904428 0.12147637 -0.018797515 0.10816737 0.062486384 0.046953946 -0.19235383 0.00289793 0.0519033 0.059822883 -0.18509652 -0.0780627 -0.31871057 0.1937195 -0.01109154 0.103025876 -0.12821625 0.21049024 -0.18686764 0.22746189 0.2395305 -0.20137651 0.0033706333 0.06218155 0.051561724 -0.052629262 -0.26215178 0.042954426 -0.18058118 -0.052543156 -0.22332913 0.20974681 0.041068874 0.009595145 0.028308405 0.08716883 0.142916 0.062688336 0.2405366 0.20132703 -0.01068528 -0.002317125 0.2765089 0.075918995 0.1511666 -0.21495238 0.14099906 0.07844758
shall -0.15247136 0.09743608 0.049414456 -0.19362742 0.051553253 -0.29192615 0.08946607 0.33769694 -0.0944202 -0.22980559 -0.07661337 -0.10748514 -0.048455846 0.15038067 0.109585166 -0.07391556 -0.031841364 -0.20639575 -0.08362739 -0.39192748 0.07329 0.08674523 0.16333418 -0.15823792 -0.05621326 -0.07654244 -0.02757359 -0.016866246 -0.124491476 -0.027569512 0.14768595 -0.010828955 -0.026859423 -0.3491893 -0.01416425 0.14617494 -0.0584047 -0.20971559 -0.1505097 -0.21278517 -0.012149991 -0.10642643 -0.04921444 -0.014940206 0.18330486 -0.22633204 -0.09954517 -0.06293038 0.1632715 0.12792258 0.10984818 -0.0932855 0.07023019 -0.122137435 -0.08443212 -0.06251785 0.0067934445 -0.040803444 -0.18585955 -0.063396506 0.10132009 0.011260088 0.060578212 0.045899473 -0.36385366 0.21851766 0.1430066 0.13852417 -0.2557729 0.16852897 -0.02582244 0.21421108 0.12505011 0.010037802 0.19115227 0.054315913 -0.07088674 0.020466678 -0.123791486 0.06706703 -0.23694044 -0.04133751 -0.19011772 0.1846411 0.013057256 -0.011800865 0.13057613 0.19531356 0.10626186 0.23412031 0.28976083 0.15229976 -0.06950066 0.015241447 0.10579302 0.1401382 0.14988936 -0.22845872 0.09877674 0.1221014
first -0.21542986 0.03325077 -0.0027122386 -0.17437355 0.06505547 -0.30903298 0.11368609 0.29170015 -0.055277556 -0.09904369 -0.10232809 -0.04779563 -0.07165099 0.08611531 0.038105927 -0.057610508 -0.093356825 -0.18204907 -0.0006265028 -0.25728905 0.12728156 0.06042651 0.14064248 -0.13765879 -0.025553856 -0.026180029 0.010916495 -0.0040273466 -0.158581 0.025891624 0.19616862 0.07252936 -0.018282356 -0.17840782 0.05138436 0.03668388 -0.07577826 -0.19545315 -0.15289128 -0.26632956 -0.036322616 -0.06684509 -0.07128025 -0.009465696 0.20336993 -0.20986429 -0.120006025 -0.0072749285 0.1118367 0.101443455 0.051379297 -0.14790438 0.048546057 0.00681578 -0.073444545 0.05257959 0.0014209532 -0.046019565 -0.18654682 -0.029739548 0.13216104 0.02440617 -0.048160233 -0.008710957 -0.34232143 0.23049171 0.025634345 0.13017981 -0.21362993 0.21443433 -0.12694721 0.24428101 0.14340813 -0.1274584 0.123886004 0.08028345 -0.041000403 -0.025140984 -0.1926941 0.07251201 -0.22441591 -0.044602744 -0.20556247 0.21003577 0.024530793 -0.03273459 0.092259035 0.10156931 0.103286654 0.14325462 0.21188231 0.1566405 -0.033521764 0.024885744 0.19829854 0.1080044 0.13264367 -0.23387262 0.12227767 0.0982753
father -0.20205224 0.04284331 0.010730495 -0.16770513 0.052266013 -0.31286168 0.123364344 0.28499007 -0.04667355 -0.11349746 -0.07693228 -0.09101578 -0.08213692 0.10274695 0.08559172 -0.04801665 -0.09490052 -0.16161925 -0.0023672066 -0.31799412 0.09640857 0.05114728 0.12758085 -0.1695939 -0.015513186 -0.022078378 -0.03225603 -0.026085554 -0.12519862 -0.016537502 0.15314272 0.08321397 0.055098027 -0.1843931 0.020546557 0.032616887 -0.054960277 -0.14736925 -0.15885368 -0.24147904 -0.029701902 -0.041051697 -0.066690974 0.038913112 0.15581134 -0.20813185 -0.114548944 0.0044368515 0.101797424 0.09703548 0.07104048 -0.1817681 0.09141323 0.024783509 -0.023958731 0.03245027 0.045156695 -0.018373402 -0.17512499 -0.009639554 0.105506584 0.038642697 -0.033777904 -0.016462045 -0.3619095 0.2068526 0.046883438 0.14803138 -0.20794263 0.16747978 -0.09876979 0.2199632 0.17761709 -0.10935423 0.055545148 0.09794326 0.016730612 -0.034750603 -0.22925572 0.097593665 -0.2408933 -0.019060725 -0.20305736 0.221071 0.02219795 0.013311565 0.062172778 0.1460159 0.13294338 0.16037314 0.28540748 0.21481736 -0.06849986 0.05754035 0.2199958 0.12866251 0.09773468 -0.19708811 0.12245432 0.10837054
frank -0.39589444 0.05914342 0.046330318 0.11997599 -0.089097075 -0.21972258 0.12706986 0.36349052 -0.005936673 -0.47270945 -0.115671836 0.053188134 0.028922576 -0.1355224 -0.11057558 -0.06525945 0.024043199 -0.3677059 -0.031278476 -0.28298774 0.00044301938 0.34083632 0.10050806 -0.2578196 0.22178951 -0.0061056716 -0.2231855 0.015283207 -0.20366561 -0.20361169 -0.076804966 0.04592909 -0.27532688 -0.30439088 -0.10367338 0.06564877 -0.16587582 -0.52660406 -0.07416476 -0.42687643 -0.037352275 -0.16163856 -0.27087295 -0.099163756 0.32935974 -0.25462344 -0.07800087 -0.4251792 0.19951731 -0.062278125 0.086503595 -0.2712771 -0.09949447 -0.3588068 -0.19151287 -0.25930336 -0.15060821 -0.4122827 -0.06775528 -0.17574391 0.23946503 -0.008294622 0.32610413 -0.026295792 -0.66275513 0.38721612 -0.071450986 0.4020022 -0.06668318 0.24599671 0.17740507 0.32448635 0.09587954 0.22772582 0.45828697 0.15326375 -0.3422794 -0.12047047 -0.14178546 -0.034439266 -0.14021975 -0.16689852 -0.18348363 0.48722962 -0.078421354 -0.30561352 0.32218522 0.036573093 -0.01517192 0.049558524 0.2563099 0.3168458 0.17027318 0.3242003 0.43166792 0.21875404 -0.010708939 0.061788686 -0.14615856 0.04241277
like -0.078680724 0.109308146 0.04342187 -0.15945117 0.02779223 -0.27383304 0.12794466 0.34323728 -0.10919563 -0.07909426 -0.12980595 -0.082413934 -0.049547747 0.046352588 0.12935905 -0.104108974 -0.0115893725 -0.191076 -0.035853203 -0.35305932 0.13475019 0.11227528 0.2531349 -0.16240829 -0.056513928 0.013951183 -0.025938971 -0.0049431953 -0.16813336 0.033164505 0.1418614 -0.047220215 0.08315456 -0.34929648 -0.024861509 0.06247931 -0.153978 -0.1693395 -0.1069372 -0.22607931 -0.089651965 -0.037093036 -0.026013035 0.121663064 0.09880295 -0.21438208 -0.11056363 -0.048507206 0.09784175 0.08787204 0.13625303 -0.22072071 0.006305033 -0.13184993 -0.017700756 -0.009878881 -0.031382997 0.0061481134 -0.17602716 -0.12470454 0.034507457 -0.04672206 -0.020043936 0.0900306 -0.3745534 0.29005757 0.093024306 0.17816463 -0.23957434 0.1891235 -0.07566427 0.2218319 0.15579493 -0.09579982 0.13074094 0.044069782 0.020086031 -0.037777577 -0.20221885 0.14603232 -0.27269372 -0.024745217 -0.24983808 0.14770691 -0.023190508 0.0074246265 0.124219 0.09817075 0.099126264 0.1329146 0.31023598 0.12038705 -0.102323286 0.0343719 0.15464617 0.09869652 0.20478028 -0.10379453 0.01659326 0.09645885
sure -0.0828409 0.08638682 0.06182993 -0.15433149 0.039282043 -0.2744691 0.09800249 0.34806818 -0.10522928 -0.12795287 -0.10650264 -0.120561875 -0.07285898 0.0880491 0.13578668 -0.073252216 -0.009102777 -0.17668438 -0.034616254 -0.3954211 0.106901854 0.10860195 0.20558576 -0.17981136 -0.08273657 -0.021184301 -0.07409119 -0.05980346 -0.13739747 0.01554617 0.12157069 -0.038285553 0.03999616 -0.37118348 -0.03829125 0.10036642 -0.1347406 -0.16991396 -0.08476221 -0.24801129 -0.046861783 -0.050727468 -0.025414433 0.05845732 0.14452243 -0.20872238 -0.1138105 -0.03999179 0.13939315 0.12547964 0.10654398 -0.15683535 0.038563497 -0.100189984 -0.020150729 -0.050358877 -0.009671117 0.016065681 -0.15183198 -0.111603685 0.019725312 -0.00065522036 0.013111138 0.068765506 -0.37779808 0.27474862 0.083327204 0.13314083 -0.22896016 0.12778266 -0.059476443 0.22326046 0.15698683 -0.071020976 0.13883455 0.060203075 -0.026247356 -0.021279132 -0.1782354 0.102656186 -0.27557153 -0.03980831 -0.20061775 0.1873064 -0.032647833 0.010305146 0.13520604 0.13987988 0.14095394 0.18335105 0.31240806 0.14952616 -0.08038221 0.053252816 0.16213563 0.13955332 0.17617768 -0.13317378 0.045540106 0.11069342
indeed -0.12028286 0.088409655 0.0654954 -0.18067726 0.06738783 -0.26763505 0.13114251 0.29760867 -0.11725899 -0.1049115 -0.0913925 -0.117381714 -0.062599815 0.055646863 0.12685075 -0.07250736 -0.027269978 -0.17311983 -0.024146259 -0.36127838 0.12793039 0.070846334 0.23149945 -0.17004345 -0.0550435 -0.0049286103 -0.041837282 -0.0048477584 -0.14275551 0.00429468 0.1338651 0.0059544933 0.045003545 -0.3049488 -0.0006339492 0.09019047 -0.108468175 -0.15162288 -0.12860648 -0.2337862 -0.04807082 -0.06577498 -0.037824627 0.07199317 0.13587585 -0.21949525 -0.10523567 -0.03953886 0.1090742 0.11670985 0.11884176 -0.15017216 0.03777229 -0.06908675 -0.031505182 -0.047137555 0.010119695 0.029111864 -0.18226878 -0.0721334 0.054370854 -0.007921294 -0.004810814 0.047004294 -0.3320699 0.24188432 0.1290639 0.15882437 -0.23351939 0.13868661 -0.10561654 0.2234649 0.15033437 -0.08013289 0.11376005 0.047528706 0.008498643 -0.02764033 -0.19016272 0.10413583 -0.25947958 -0.054130293 -0.22343172 0.19467728 -0.02905578 0.016424539 0.12955658 0.15004693 0.109092414 0.14393507 0.27630642 0.17055537 -0.08188452 0.047437694 0.18203336 0.12266421 0.1873565 -0.1690492 0.09146517 0.10723635
made -0.1810132 0.10235571 0.07931623 -0.13375446 0.090380855 -0.2924585 0.1331319 0.24507986 -0.10622445 -0.07254841 -0.1029603 -0.096964285 -0.056660023 0.090518 0.094859555 -0.06128043 -0.08891394 -0.15674487 0.0027703417 -0.3344647 0.14604354 0.031053929 0.15716839 -0.15662956 -0.04379277 0.010708398 -0.043759745 0.032899816 -0.17985307 0.0023373177 0.19243802 0.08113141 0.029592117 -0.18089566 0.032321632 0.01016223 -0.081239365 -0.117251724 -0.14029668 -0.26268482 -0.050997656 -0.046428423 -0.09948411 0.034825932 0.15481059 -0.21320666 -0.09236737 -0.016161578 0.08101763 0.115003 0.057407506 -0.16106121 0.020913126 0.018252233 -0.0057223714 0.021470658 -0.015392437 -0.00021652524 -0.21957783 -0.042616207 0.08664477 0.04334244 -0.07085298 0.029276796 -0.33380017 0.2016545 0.092839204 0.14299758 -0.18066101 0.21037444 -0.15511727 0.21377471 0.1657459 -0.10541096 0.062483136 0.09735459 0.006470295 -0.04945652 -0.22923324 0.054014884 -0.19219339 -0.08512764 -0.23544092 0.23565987 -0.033260453 -0.003635882 0.09091439 0.10033441 0.12693018 0.12056234 0.26707342 0.15650314 -0.05364835 0.07273793 0.22352166 0.12008951 0.13613468 -0.17891918 0.11168933 0.08637088
come -0.20396586 0.049797185 0.025226574 -0.17813072 0.03175557 -0.2949854 0.0660967 0.33214307 -0.055659883 -0.19977662 -0.11423475 -0.07703981 -0.104890525 0.13578992 0.07811126 -0.063310176 -0.079799935 -0.22891837 -0.072705 -0.3117142 0.0813698 0.054858882 0.16115287 -0.14913143 -0.05929946 -0.05754161 -0.08234653 -0.020277135 -0.10711209 -0.016285647 0.14305747 0.04973105 -0.033109743 -0.2867576 0.016472 0.1099599 -0.03318007 -0.22122318 -0.1864694 -0.22520573 -0.03701017 -0.1119193 -0.04683367 -0.042715427 0.24087426 -0.22511189 -0.09906824 -0.049371496 0.1852269 0.11972595 0.0978876 -0.1175047 0.08262869 -0.10861 -0.08141318 -0.039614048 -0.028013557 -0.06970697 -0.15592267 -0.046671577 0.12959263 0.011740499 0.079955295 0.018697068 -0.36328423 0.19935209 0.14197215 0.17164196 -0.23840001 0.17607799 -0.051709518 0.21770394 0.11177066 -0.033653826 0.1564118 0.11121529 -0.072111 0.004371174 -0.1088991 0.07985916 -0.24695446 -0.059202537 -0.19504632 0.2262805 0.018742401 -0.039575655 0.13115229 0.18608107 0.08860301 0.2207796 0.28262338 0.14268115 -0.04548199 0.0038238273 0.16718121 0.15643115 0.11326984 -0.20443857 0.09042531 0.14081025
ever -0.12906182 0.06270717 0.02669259 -0.09207154 -3.2536725e-05 -0.28187528 0.17877217 0.31000614 -0.10284061 -0.06317113 -0.059203457 -0.09007784 -0.06609733 0.03892463 0.07245913 -0.09584375 -0.068009794 -0.17992 -0.03386536 -0.32783628 0.13786124 0.08162403 0.15294112 -0.17368641 0.016870486 0.016187847 -0.009075093 -0.042084984 -0.14633518 0.043584235 0.13243249 0.07961539 0.06873206 -0.21723856 -0.028740153 0.0061350474 -0.1357099 -0.12082052 -0.079175994 -0.278556 -0.030640133 -0.010747959 -0.060986873 0.13226193 0.071263775 -0.21163201 -0.11552554 -0.034674402 0.064292185 0.098201096 0.09887573 -0.26098734 0.034305926 -0.02667065 0.004911631 0.03595798 0.02421761 0.04110876 -0.14469895 -0.037753895 0.08026177 0.004496897 -0.063139684 -0.022451121 -0.3920425 0.24471651 0.02094315 0.17597046 -0.19713853 0.17947836 -0.10752839 0.22572203 0.19469433 -0.12718487 0.062459406 0.0576914 0.021413276 -0.0801074 -0.27649054 0.13571385 -0.21007587 0.002753158 -0.24696068 0.20112985 -0.028947912 -0.004433321 0.08593685 0.049907222 0.12724423 0.13760105 0.28790662 0.21167894 -0.043089047 0.09822798 0.2708305 0.08364685 0.16263273 -0.116826 0.096306026 0.04770109
body 0.12275552 0.15653755 0.4018696 -0.22873431 0.14619972 -0.3011917 -0.033076677 0.44217104 -0.13665985 -0.23799662 0.044298403 -0.22942063 -0.007199027 0.121382035 0.29204243 -0.10120302 -0.099639066 -0.026113547 -0.036747962 -0.45622203 0.17161 -0.05717166 0.24427621 -0.20571035 -0.05946577 0.11927566 -0.08019074 -0.16658242 0.09244654 0.2429723 -0.15547912 -0.048338648 0.17106423 -0.3749271 -0.054961782 0.073290646 -0.24040829 0.0013777525 0.14442919 -0.27357936 -0.03002932 -0.03475838 0.02371029 0.32948196 -0.015510731 -0.25557804 0.03514611 -0.029365988 -0.117086686 0.2681208 0.111730106 -0.14225425 -0.1446383 0.047360346 0.10775866 0.012384263 0.08176864 0.21332647 0.07207981 -0.1739873 -0.08165403 0.06806878 -0.019848624 0.14099698 -0.5336595 0.385198 0.23202166 0.14650731 -0.104488604 0.13828285 -0.08950082 0.21256039 0.16580549 -0.0764478 -0.06322095 0.019300668 3.400741e-05 -0.13189581 -0.27037534 0.22132671 -0.33097163 0.020007456 -0.27781576 0.40587786 -0.13601379 0.26617318 0.05912878 0.092418805 0.2781311 0.28979498 0.28483438 0.12823027 -0.04256706 0.08304203 0.35983452 0.12779814 0.24330716 -0.18752158 0.12387613 -0.023008233
young 0.097718745 0.15454888 -0.20098098 0.07814529 -0.27570164 -0.1817452 0.38951266 0.2812307 -0.18167754 0.20245577 -0.2776542 -0.06328633 0.07051394 -0.2230296 -0.06344663 -0.17466308 0.068789415 -0.19127111 -0.11469893 -0.4038569 0.3745727 0.34839383 0.4010911 -0.24555458 0.09132688 0.11000676 0.11315456 -0.077379994 -0.25884402 0.135333 0.116963275 -0.09928819 0.28717434 -0.4235617 -0.077402934 -0.018104477 -0.42240462 -0.12685472 -0.021325216 -0.43032116 -0.27326307 0.11521298 0.05481782 0.43108827 -0.048625488 -0.22115374 -0.33953238 -0.08781188 -0.114222586 0.030532641 0.30380437 -0.556799 -0.115834385 -0.18798475 0.13834223 0.078216426 0.0058093835 -0.054662462 -0.30616367 -0.13412742 -0.034111984 -0.12695502 -0.30703443 -0.0070169745 -0.4762618 0.45054618 -0.310736 0.33916533 -0.27843386 0.28618515 -0.26040465 0.24480407 0.25546494 -0.2193974 0.024617197 -0.038921006 0.19042133 -0.06177109 -0.44009674 0.27521712 -0.27458572 0.23929422 -0.35305226 -0.15383734 -0.16024719 -0.09840132 0.024825133 -0.16269375 0.046104543 -0.104594655 0.33111662 0.06139816 -0.21202406 0.17694472 0.35540724 -0.049481113 0.26244396 0.0647608 -0.23001528 -0.0035773467
give -0.15149915 0.069072 0.067825474 -0.13408418 0.08617329 -0.299792 0.14423905 0.2995612 -0.0648803 -0.115066096 -0.09463223 -0.12232796 -0.08786479 0.08803369 0.114245154 -0.056155022 -0.113380924 -0.1609303 -0.009166566 -0.3269645 0.103703015 0.06553676 0.122862525 -0.1423189 -0.048075803 0.017558282 -0.045446098 0.016018884 -0.14438334 0.02289734 0.16795242 0.08466915 0.04234241 -0.19727226 0.011080559 0.04467062 -0.0781779 -0.11142627 -0.11162091 -0.24579231 -0.019658241 -0.048758075 -0.053862955 0.018457595 0.14754638 -0.20848267 -0.13562943 0.034179177 0.10756493 0.13759862 0.077249244 -0.16195068 0.06703649 0.014509023 -0.028762804 0.037164036 0.013541867 0.01704803 -0.15139337 -0.015359789 0.07005306 0.05336739 -0.08356557 -0.0037359498 -0.3610077 0.20242761 0.09072952 0.14174044 -0.21002346 0.19733813 -0.11344014 0.21165806 0.18705523 -0.12284352 0.07666751 0.06160196 0.04916052 -0.04901694 -0.20050605 0.0640978 -0.21293898 -0.06334684 -0.2160992 0.2429988 -0.023172604 0.039961282 0.093636185 0.120869175 0.13732007 0.14279708 0.27023646 0.17626736 -0.031981725 0.052783657 0.1966644 0.122009814 0.15031786 -0.2037035 0.15218464 0.108774625
two -0.2836431 0.009629321 0.0023225823 -0.17378786 0.02130204 -0.29690915 0.13811924 0.27079552 -0.038495 -0.09180314 -0.13541214 -0.039509922 -0.07733539 0.061630785 0.02569784 -0.03371748 -0.1311781 -0.22080702 0.000952138 -0.24672179 0.10040209 0.0130929435 0.11123453 -0.14168966 -0.0046873163 -0.023875922 0.01109805 -0.018726245 -0.15130731 0.033379283 0.15070288 0.15852356 -0.002373506 -0.12812455 0.07158705 0.022679782 -0.07858785 -0.16434701 -0.1758904 -0.23006605 -0.031916816 -0.051948834 -0.06466366 -0.010247046 0.20154625 -0.22222827 -0.091680646 -0.006351348 0.13534816 0.07280975 0.085889116 -0.15973705 0.083323926 0.06609006 -0.097420506 0.061626982 -0.021307362 -0.0195104 -0.1785143 0.0030689768 0.12821235 0.0577318 -0.0882572 -0.047931302 -0.31839687 0.17395493 0.027334595 0.1314198 -0.20365083 0.21059228 -0.13197859 0.24844316 0.17341165 -0.15421633 0.11845064 0.081677444 -0.022493511 -0.053899787 -0.22344215 0.12650484 -0.23618421 -0.018227968 -0.19827794 0.22758964 -0.0048841834 -0.022850603 0.022211183 0.11512987 0.14558756 0.17717105 0.2651193 0.16525272 -0.0123829255 0.047703996 0.25891513 0.10146199 0.12784207 -0.23732851 0.15143962 0.09764585
though -0.13234612 0.100030854 0.060109276 -0.12259778 0.051307596 -0.28820148 0.16041929 0.2801954 -0.09518251 -0.04450132 -0.09746353 -0.09704436 -0.07842702 0.08156396 0.0886268 -0.100960426 -0.10688611 -0.12993424 0.019307906 -0.3059177 0.13644916 0.030025965 0.14634772 -0.18293309 -0.029308828 0.034475528 -0.0023086732 -0.06422583 -0.17814824 0.07533101 0.16981223 0.08226964 0.05350045 -0.18327978 0.007973504 -0.020688135 -0.14016399 -0.099332005 -0.10077266 -0.2730124 -0.030020995 -0.0035506696 -0.03807589 0.095639504 0.08335929 -0.23192516 -0.10845858 -0.01859766 0.071886204 0.08735674 0.0594325 -0.21462953 0.033215813 0.030898793 0.020347463 0.03371266 0.01880672 0.03233304 -0.199505 -0.030468348 0.06581551 0.035655055 -0.1231549 0.0009920897 -0.34293273 0.24202745 0.047796678 0.09848473 -0.20487209 0.18376365 -0.17467642 0.2273911 0.20687766 -0.1877075 0.046102546 0.089351244 0.024053361 -0.039152544 -0.25037146 0.09857909 -0.20748177 -0.015579021 -0.21308896 0.20770626 -0.032063715 -0.0024791257 0.070170924 0.10250849 0.14713901 0.12858036 0.27009672 0.2015598 -0.087155275 0.027812341 0.24252295 0.07996706 0.14147754 -0.171954 0.11903896 0.058213446
make -0.13025293 0.11287499 0.04079116 -0.15134287 0.076777086 -0.2840612 0.18028465 0.2989964 -0.07620782 -0.06555157 -0.08311851 -0.11217164 -0.08500759 0.06610516 0.10115273 -0.07320541 -0.09642127 -0.13838804 0.020579655 -0.3416025 0.14676861 0.0303877 0.11087693 -0.14335218 -0.040525258 0.029496115 -0.018640906 -0.016884577 -0.14738834 0.054639038 0.1969695 0.079091944 0.036569025 -0.16404587 0.034228027 0.0043298188 -0.1093205 -0.11183136 -0.10965248 -0.2525348 -0.024388466 -0.037954554 -0.06910867 0.034814708 0.12919159 -0.2105915 -0.122538656 0.002387608 0.06536794 0.11862861 0.07404533 -0.18407077 0.025203032 0.05490807 0.002067464 0.02660587 0.057041902 0.061525237 -0.17106806 0.016272048 0.063051924 0.053379864 -0.10563664 -0.045088015 -0.35635445 0.2086223 0.06925084 0.08981567 -0.1928787 0.15613219 -0.18434912 0.20968968 0.19439638 -0.15556328 0.012095349 0.054018974 0.055256803 -0.031368498 -0.26387522 0.08690541 -0.23294961 -0.06248936 -0.19706424 0.25037408 -0.019479977 0.064548 0.045406856 0.103986114 0.14789835 0.107229464 0.23494434 0.18263686 -0.049084447 0.020027593 0.24082527 0.084517375 0.14211306 -0.21348599 0.14346395 0.09644054
way -0.17292954 0.089876905 0.06900113 -0.15905884 0.0532856 -0.27526665 0.11899738 0.28848714 -0.08669176 -0.11162512 -0.07802484 -0.10610737 -0.102311596 0.09558687 0.07195196 -0.07305262 -0.082471974 -0.15892713 -0.0072788824 -0.31314278 0.11259917 0.027353154 0.1190017 -0.12893252 -0.015499497 -0.013944404 0.004878048 0.005395262 -0.11411705 0.0401655 0.15238887 0.08190583 -0.0073163155 -0.19950895 0.04313461 0.015784362 -0.081224814 -0.16076449 -0.10455459 -0.26096916 -0.029847693 -0.06962854 -0.043429747 0.043288868 0.14154093 -0.25263393 -0.12131992 0.0037802039 0.0921719 0.12994294 0.05782397 -0.16940208 0.053007774 0.018050354 -0.020476326 0.032731514 0.0008606331 0.020463906 -0.17841884 -0.03422936 0.070287496 0.029494176 -0.07900607 -0.009471213 -0.36600807 0.22965051 0.09831819 0.14149475 -0.17679036 0.18916501 -0.13572977 0.24397932 0.18646525 -0.13188146 0.07546256 0.10531374 0.009114511 -0.04705496 -0.20886594 0.08433756 -0.21763587 -0.054999173 -0.21134995 0.24283138 0.012089938 0.028153716 0.063871525 0.11260316 0.12992617 0.17352208 0.24380341 0.15319411 -0.04851435 0.015737008 0.22602619 0.11179283 0.14756428 -0.21631223 0.1441292 0.09426116
better -0.12480779 0.09708744 0.05392053 -0.122927114 0.055319116 -0.27599692 0.15857206 0.31026998 -0.0855161 -0.13733701 -0.056529883 -0.10744193 -0.07920315 0.06993233 0.14322773 -0.10065339 -0.04577042 -0.14618663 -0.09073441 -0.34584454 0.08804991 0.0632294 0.1570855 -0.20153369 -0.028424386 -0.0055629816 -0.04737002 -0.09243426 -0.10893732 -0.009730955 0.08177865 0.035692055 0.04682871 -0.24109076 -0.060865115 0.062073343 -0.09770496 -0.11704958 -0.07545463 -0.24717847 -0.015249356 -0.033436187 -0.015589618 0.06392495 0.10649367 -0.18783359 -0.11109074 -0.01252721 0.10727955 0.11154397 0.11075701 -0.238376 0.07033615 -0.05893521 -0.027220706 -0.000750637 0.04201111 0.013294102 -0.16090286 -0.06139362 0.07201108 0.02534118 -0.011507702 0.005359399 -0.35316837 0.24607585 0.05098899 0.16740522 -0.24007618 0.1297346 -0.0786887 0.21802877 0.21754599 -0.118787386 0.063234605 0.06260339 -0.0018272004 -0.058849167 -0.26600525 0.09048986 -0.2558788 -0.046990864 -0.22048733 0.27362832 -0.025514118 0.026476623 0.09713889 0.11629738 0.16022265 0.17032504 0.34949324 0.26428142 -0.056585316 0.08962094 0.2730817 0.118050516 0.11100745 -0.1250456 0.09284644 0.07420737
hope -0.17002955 0.07232446 0.074503794 -0.14788927 0.073149234 -0.28089628 0.13819113 0.28461212 -0.10677785 -0.13468993 -0.087193616 -0.12551905 -0.074163 0.09092968 0.104288585 -0.06554921 -0.08570343 -0.19281101 -0.023976497 -0.36132482 0.109863915 0.07019765 0.1460005 -0.14170948 -0.059211135 -0.040789213 -0.04461741 -0.006525237 -0.15590622 -0.026077444 0.15429738 0.047583833 0.03185586 -0.2544879 -0.0054337173 0.073277384 -0.07166721 -0.14804755 -0.15125698 -0.20933712 -0.00011277426 -0.084100224 -0.04997006 0.023277605 0.15448524 -0.2002595 -0.108790174 -0.02593011 0.12279396 0.123149976 0.06464026 -0.15282187 0.07240777 -0.033223692 -0.029853597 -0.023451041 -0.0066912705 0.011783977 -0.18860592 -0.02241756 0.07252893 0.03306301 -0.03397246 0.012803635 -0.3715855 0.20571382 0.103708185 0.13888521 -0.22350833 0.17746092 -0.103297785 0.21843094 0.1521447 -0.10939737 0.11285945 0.061692387 -0.015580103 -0.0053351345 -0.1796545 0.069269106 -0.22585891 -0.021777244 -0.21289037 0.22993667 -0.021645151 0.022903522 0.08658215 0.16690752 0.14657241 0.15711479 0.26894414 0.18818824 -0.041194756 0.058437344 0.18530458 0.10559819 0.15821439 -0.20009847 0.10992987 0.10018579
upon -0.14534833 0.05864489 0.06959245 -0.06233549 0.0066956384 -0.2859427 0.06932678 0.3253235 -0.08156283 -0.08767846 -0.047596022 -0.08587381 -0.041337032 0.09771767 0.1478718 -0.059320442 -0.087466426 -0.23088324 -0.0039818315 -0.42606756 0.14990176 0.14288676 0.17333908 -0.1324997 -0.0662509 -0.008960101 -0.05665441 0.02397819 -0.16642173 0.04894308 0.15841426 -0.0019757522 0.06814307 -0.2386949 0.014423743 0.08165216 -0.1363393 -0.17812662 -0.13953336 -0.28488004 -0.054119542 -0.085856184 -0.016082827 0.12855598 0.19873145 -0.17237192 -0.102607 -0.03970006 0.08851523 0.082628705 0.13316049 -0.1296682 0.0008152366 -0.07930773 0.006960005 -0.03031241 0.05376688 -0.06455231 -0.16311967 -0.06321464 0.06896155 -0.014462778 -0.024221513 0.034755427 -0.39673385 0.28340933 0.08085466 0.24621344 -0.17913392 0.20175165 -0.12089666 0.16116138 0.15580472 -0.040326808 0.14643478 0.06638961 -0.03820595 0.029740378 -0.17708525 0.02151849 -0.2105867 -0.056060728 -0.25763136 0.26360226 0.051182926 0.04063053 0.11024312 0.1732904 0.13484396 0.104329556 0.2717234 0.1336835 -0.08120619 0.11239025 0.21239436 0.14360066 0.04951622 -0.094210185 0.023017505 0.12786087
hartfield -0.25703415 0.053062104 0.023597741 -0.18941648 0.058346678 -0.29353902 0.12692074 0.24105804 -0.041351054 -0.11527763 -0.09906557 -0.07409439 -0.09472294 0.10008057 0.04336105 -0.050626293 -0.122432 -0.21355607 -0.019238126 -0.26723954 0.089131504 0.05085437 0.0960803 -0.13839939 0.0066993753 -0.019519402 -0.05538334 0.00038109286 -0.13514587 0.01985424 0.2162847 0.15292309 0.013675294 -0.10700721 0.057830688 0.05750918 0.009634758 -0.14164913 -0.20417762 -0.21551256 -0.04612742 -0.091148704 -0.07743087 -0.008100712 0.20950563 -0.23362371 -0.09107095 -0.00022056006 0.12954982 0.112003855 0.053757317 -0.14523879 0.10916148 0.035724383 -0.09262195 0.057030264 -0.02151899 -0.026536692 -0.20455307 0.039005857 0.1779007 0.055468835 -0.016019864 -0.038993564 -0.32403743 0.14430018 0.0680091 0.13286349 -0.21009444 0.22661674 -0.120355405 0.2552278 0.15125374 -0.12564105 0.056533463 0.11319061 -0.028652634 -0.032120172 -0.1795859 0.11408551 -0.1937828 -0.077043965 -0.23485085 0.2243933 0.01014092 -0.032107905 0.058307566 0.1622438 0.11949088 0.19621666 0.2576284 0.20634015 -0.03377007 0.013142957 0.20790614 0.105542876 0.13726047 -0.22392587 0.19261108 0.08492464
feeling -0.12943974 0.0837374 0.04763567 -0.117627315 0.06397244 -0.29362643 0.13964547 0.30720276 -0.09347031 -0.062234104 -0.110017836 -0.10621425 -0.09029987 0.07910076 0.063972086 -0.08475335 -0.107990295 -0.13816796 0.016810425 -0.32358044 0.1710656 0.09262721 0.1338061 -0.14068633 -0.0161457 0.017009048 0.0015085363 -0.030284747 -0.15186833 0.07895325 0.16806644 0.077923216 0.033107452 -0.18748301 -0.0016960187 -0.0010395967 -0.117841855 -0.11395767 -0.0723181 -0.28188297 -0.023369735 -0.030380882 -0.05298548 0.08185525 0.120811746 -0.20222247 -0.10631957 -0.018332915 0.046628892 0.10261895 0.04423673 -0.2118548 0.013145409 0.028164214 -0.0019216862 0.035448994 0.032058734 0.009074528 -0.17454302 -0.039909206 0.055836353 0.047341064 -0.1333664 -0.027948998 -0.36522648 0.24045008 0.033661604 0.12576096 -0.17686675 0.17975093 -0.15824224 0.21592118 0.20443588 -0.15844935 0.036946498 0.07572256 0.035123616 -0.051993 -0.26491818 0.08272587 -0.1980778 -0.04220512 -0.21539895 0.217886 0.01453937 0.016100015 0.07802861 0.067926094 0.12582286 0.09813692 0.21830443 0.1635225 -0.03038842 0.045477014 0.25599557 0.087778166 0.14618851 -0.19128287 0.096849136 0.09821503
really -0.10403649 0.0899977 0.041790497 -0.16368061 0.047343615 -0.29529485 0.120790385 0.32860073 -0.098391674 -0.1466187 -0.068044506 -0.11568019 -0.08344266 0.088183306 0.11965559 -0.1016367 -0.04516788 -0.1721028 -0.032997973 -0.3827076 0.10887038 0.09934913 0.17442979 -0.1739523 -0.061713967 -0.027312573 -0.0114062745 -0.055158786 -0.16198051 0.008260938 0.13808268 -0.015008164 0.05563502 -0.2989524 -0.02309379 0.057583824 -0.13234794 -0.16421133 -0.09727602 -0.23763688 -0.011455235 -0.07012208 -0.042254552 0.062327668 0.13753949 -0.18973017 -0.095704906 -0.039336983 0.10518983 0.11775394 0.08235599 -0.17901222 0.032067824 -0.04821375 -0.014204124 -0.0039505595 0.012871397 -0.021476746 -0.14233714 -0.08065528 0.05905383 0.018536542 -0.030050093 0.034184206 -0.36522198 0.26388934 0.09134667 0.13637276 -0.23530114 0.15748353 -0.089169785 0.20237084 0.18165506 -0.0861795 0.11953026 0.05438595 -0.024435135 -0.030076731 -0.21897519 0.104065664 -0.24591313 -0.0362087 -0.21391486 0.22905734 0.0056377063 0.0059051844 0.106795 0.122223794 0.14973542 0.17244117 0.2782633 0.16757607 -0.0816485 0.045078862 0.17154054 0.13213554 0.14953448 -0.16184153 0.04558499 0.12074502
letter -0.19509265 0.02713795 0.009489023 -0.1360527 0.05108686 -0.32223257 0.05092731 0.34454 -0.07739484 -0.18439855 -0.046428934 -0.10398659 -0.048620254 0.1416031 0.09418842 -0.088057585 -0.08939497 -0.17343591 -0.057184298 -0.2740266 0.13332269 0.07684511 0.12835683 -0.11963593 -0.004143387 -0.05981677 -0.0567444 -0.043066025 -0.096891694 0.077608235 0.093428314 0.07561576 -0.007674148 -0.25154617 0.004874901 0.07369218 -0.08856277 -0.20143996 -0.16278225 -0.2618321 -0.02924818 -0.06319148 0.0041089864 0.017191546 0.19174008 -0.19276018 -0.072837204 -0.052229706 0.106641345 0.12268114 0.06886638 -0.1736808 0.046774562 -0.043587774 -0.06646395 0.000406648 0.050025128 -0.02642266 -0.11567599 -0.026592584 0.1432208 0.010637194 -0.0037595208 -0.05013945 -0.39570516 0.25436413 0.057898212 0.18123354 -0.21414828 0.17065023 -0.086186156 0.19415505 0.1414901 -0.09433194 0.15237682 0.07299903 -0.05830613 0.0011113781 -0.1848963 0.088838466 -0.25359094 -0.009856388 -0.18851255 0.24306293 0.054732475 0.023569519 0.075261965 0.12045494 0.160445 0.17204468 0.20557453 0.12564522 -0.037935633 0.048570707 0.1837653 0.13366793 0.09857044 -0.24609098 0.12325731 0.09405556
bate -0.32350954 -0.011172928 -0.007943793 -0.2638481 0.013232327 -0.39775997 -0.113282636 0.39063755 -0.13099758 -0.35293892 -0.24989142 -0.042342428 -0.14865178 0.1767554 0.055941947 0.019283874 -0.1066169 -0.42334723 -0.054957252 -0.346376 0.026705567 0.13083863 0.2645916 -0.041715477 -0.18028326 -0.09897419 -0.21992344 0.23921797 -0.15854086 -0.019462466 0.2392204 -0.053029668 -0.23527597 -0.4849371 0.14166899 0.21564694 0.07322853 -0.4036883 -0.33528376 -0.17194803 -0.16757698 -0.2577104 -0.050327387 -0.24662273 0.39324352 -0.40632284 -0.16768385 -0.05500209 0.42056784 0.12606058 0.079658605 0.07494124 0.19798037 -0.2626261 -0.3333002 -0.07951856 -0.118943214 -0.19320652 -0.2533636 -0.16249003 0.18637657 -0.034063924 0.18719615 0.22917064 -0.38795066 0.1664209 0.3036311 0.27760926 -0.23630536 0.24949314 0.08964519 0.25206968 -0.03230176 0.084239215 0.5536278 0.17093778 -0.26562226 0.06259489 0.13486063 0.028551113 -0.22970058 -0.06974355 -0.15432748 0.013933118 0.11134832 -0.18377964 0.2444003 0.28860566 0.028688494 0.2720292 0.29361737 0.0047638416 0.009581206 -0.08561734 -0.077520914 0.22019339 0.2463013 -0.31985828 0.041202027 0.38588735
long -0.24214917 0.06507577 -0.0015012337 -0.1365629 0.054598868 -0.29089364 0.12174561 0.2672023 -0.0719391 -0.11042867 -0.059306458 -0.07694577 -0.062687814 0.07962885 0.025337925 -0.06352817 -0.10543254 -0.20316161 0.020943405 -0.3006027 0.08603577 0.04072082 0.08864209 -0.15169711 -0.0051776217 -0.01202984 -0.025988523 0.0034007877 -0.13615608 0.035612624 0.20118634 0.147933 -0.01881289 -0.14194782 0.042214062 0.029249894 -0.0659161 -0.15960182 -0.16226622 -0.25837836 -0.021544283 -0.036198407 -0.07477328 -0.003949091 0.20549934 -0.21287332 -0.12588938 -0.024725731 0.08678861 0.10698119 0.04805364 -0.15601145 0.05476819 0.082481325 -0.043625157 0.055052187 0.00091657706 0.0017280882 -0.2015601 0.049812082 0.14664245 0.05887646 -0.05747791 -0.08036316 -0.35565108 0.18153828 0.047489226 0.13871384 -0.18732123 0.21254793 -0.16517816 0.24969395 0.15706638 -0.1438952 0.05995136 0.107658565 -0.012598963 -0.017267901 -0.18962976 0.07239822 -0.20688558 -0.04489396 -0.21969101 0.241122 0.013906608 0.006797618 0.045822866 0.12685196 0.14547364 0.16440192 0.20302926 0.18265203 -0.020113645 0.051746804 0.22924797 0.09856924 0.12587029 -0.20331427 0.17965548 0.06864812
look -0.13997954 0.07382173 0.058209345 -0.1387494 0.08179412 -0.29888523 0.11278551 0.30799976 -0.116825394 -0.117649384 -0.07100012 -0.09838745 -0.08100345 0.103458926 0.12621033 -0.0570181 -0.06922727 -0.19665813 -0.027737286 -0.34889996 0.105648376 0.07602327 0.1610061 -0.14551412 -0.059878226 -0.008977663 -0.025825076 -0.014635399 -0.13427503 0.033045445 0.17690866 0.018574648 0.025345366 -0.25900188 0.037921354 0.069116056 -0.07796325 -0.171524 -0.11580708 -0.2661361 -0.000402903 -0.08892212 -0.076739125 0.07172594 0.14342985 -0.19561732 -0.113172375 -0.0072347573 0.12647371 0.09599689 0.09419623 -0.1386716 0.04462462 -0.031091085 -0.04936455 0.010177956 0.013113013 0.012675157 -0.20201804 -0.06705998 0.049318817 0.025702778 -0.03562121 0.055263262 -0.34768936 0.23894736 0.12632325 0.15110774 -0.19480798 0.17431432 -0.094074085 0.19447954 0.15142024 -0.072092526 0.118374005 0.042739403 -0.009365338 -0.011506282 -0.16619854 0.075181216 -0.23819661 -0.068043694 -0.20252846 0.21369788 0.0007141518 -0.00048595 0.11247974 0.14529029 0.13365754 0.17905073 0.24235551 0.17025277 -0.057337657 0.040836412 0.17001748 0.1259633 0.14040226 -0.22019614 0.11790506 0.11071936
cannot -0.1096868 0.0858761 0.029202439 -0.1570752 0.0210254 -0.2882055 0.15473646 0.30599806 -0.09332608 -0.090331815 -0.09941807 -0.08162629 -0.09068198 0.053006336 0.109278366 -0.06703358 -0.045318402 -0.17952818 -0.054601558 -0.39435843 0.11314193 0.09613859 0.15006486 -0.1471302 -0.027817281 0.011061832 -0.029129712 -0.009613919 -0.16720909 0.04142779 0.14916186 0.035968114 0.03148257 -0.2667144 -0.010200069 0.05663138 -0.11165651 -0.12996703 -0.1049292 -0.24541038 -0.03402331 -0.062155843 -0.023365412 0.07523109 0.13611242 -0.20460822 -0.11544661 0.006860682 0.07174299 0.11948385 0.098267406 -0.19934987 0.05276491 -0.036188334 -0.041045655 0.013371184 0.036549047 0.042803396 -0.18304285 -0.014222056 0.048676386 0.01568125 -0.0743293 -0.0033457435 -0.33218175 0.2603225 0.07403435 0.14982666 -0.22387154 0.15305388 -0.09415249 0.22830409 0.19630651 -0.102904595 0.06544968 0.042805903 0.0006048689 -0.0021066037 -0.20229918 0.07446883 -0.23662105 -0.02200846 -0.20701264 0.18383493 0.009721211 0.033607952 0.08772013 0.13015628 0.13235499 0.14301607 0.27746257 0.17391534 -0.0930185 0.020567322 0.19933464 0.10258265 0.16469732 -0.17892894 0.08843142 0.1263102
rather -0.14528136 0.11767131 0.06242844 -0.1394651 0.07448674 -0.2709863 0.17265888 0.26572776 -0.11469369 -0.04892075 -0.09696234 -0.12241511 -0.05966255 0.038735364 0.1138525 -0.07942199 -0.058404185 -0.1466349 -0.025981626 -0.34136572 0.14167841 0.0430563 0.1580648 -0.14711922 -0.07251597 0.003669256 -0.014274962 0.008071569 -0.14904554 0.020423204 0.17751133 0.03070898 0.044999212 -0.21990924 0.0011011311 0.03532295 -0.06660142 -0.11285641 -0.10710986 -0.24656445 -0.040259074 -0.061294384 -0.065771826 0.067265734 0.12095697 -0.19577432 -0.0929417 0.010321761 0.08764795 0.1196291 0.10566407 -0.19583213 0.054030515 -0.024473129 -0.011432622 0.018609377 -0.00150621 0.025521047 -0.2054913 -0.051836167 0.050418425 0.042944543 -0.06528268 0.008870328 -0.30657092 0.2289238 0.11291084 0.15645781 -0.23103802 0.1596287 -0.1412854 0.21977234 0.19437768 -0.13858412 0.03918084 0.072140135 0.010662913 -0.023246929 -0.2094575 0.06710984 -0.22629654 -0.071269386 -0.23889847 0.21322021 -0.032014325 0.031492066 0.07502533 0.12639984 0.11677963 0.13786627 0.2718825 0.18506768 -0.049345806 0.024586562 0.24741183 0.0804951 0.160771 -0.20559157 0.1277177 0.0855129
word -0.16563512 0.098026074 0.08372904 -0.12307707 0.06569108 -0.30130777 0.098234296 0.31977612 -0.12088479 -0.12601463 -0.09869559 -0.05815718 -0.089728154 0.08094694 0.14838451 -0.057448063 -0.054671764 -0.17222066 -0.0041706865 -0.3808151 0.1294366 0.12335767 0.17618152 -0.11515679 -0.040617146 -0.023372408 -0.0363396 -0.04147547 -0.16049278 0.036962923 0.14507861 -0.00835551 0.0389167 -0.30735263 0.027531656 0.09441088 -0.12317958 -0.2258766 -0.12759206 -0.23463802 0.018763805 -0.074941054 -0.053554446 0.082982354 0.14669976 -0.20184918 -0.11127684 -0.012677192 0.102646515 0.071610585 0.109083064 -0.13056388 0.048503105 -0.044012725 -0.021661287 -0.02996421 -0.0016066927 0.058787003 -0.15848 -0.10157485 0.03864009 0.0262902 -0.03253633 0.04194049 -0.36380294 0.2384578 0.119750515 0.13813652 -0.25121695 0.16930008 -0.061028097 0.24413621 0.1575386 -0.071237765 0.12408306 0.0627289 0.008567492 -0.0049146675 -0.1996196 0.049477924 -0.2549203 -0.029949116 -0.20726256 0.1777964 0.0331428 0.019564498 0.12634364 0.19768159 0.12625131 0.1569064 0.2326342 0.14341909 -0.06632865 0.032170422 0.18294711 0.12269199 0.15231535 -0.20528257 0.08524384 0.12494329
seemed -0.1863671 0.08634285 0.058747727 -0.11755974 0.07179633 -0.28310484 0.13945934 0.28182858 -0.06754858 -0.0784186 -0.08996321 -0.11159345 -0.08206278 0.05905444 0.09687079 -0.05674364 -0.106839225 -0.17667654 0.014478086 -0.2876534 0.12840424 0.06947144 0.13613799 -0.15065926 -0.011017492 0.023455482 0.017817901 0.00063345704 -0.14477262 0.05199399 0.18279366 0.09409524 0.016862791 -0.13424279 0.01358476 0.0060802074 -0.066487454 -0.14402783 -0.09966268 -0.2641262 -0.043016758 -0.021822311 -0.0810785 0.055068806 0.13760163 -0.18656613 -0.0812674 -0.034121625 0.070259705 0.08439804 0.057693776 -0.1814362 0.014604085 0.048860867 -0.039351445 0.040208563 0.030068502 0.028306153 -0.15867437 -0.019380314 0.08364502 0.05857572 -0.11279572 -0.005213185 -0.35392705 0.21847138 0.022443024 0.12667419 -0.15164372 0.19919889 -0.13783672 0.20490286 0.17687635 -0.11775443 0.027945334 0.08146025 0.011478939 -0.07706149 -0.25389373 0.09801123 -0.18898936 -0.051415246 -0.21993731 0.24059328 0.018999761 0.025073534 0.061104737 0.09290762 0.14062743 0.12425446 0.24610177 0.18040992 -0.042035997 0.039925694 0.27426568 0.11110561 0.15278205 -0.20635161 0.14683603 0.06577701
many -0.180832 0.064711645 0.016434688 -0.10074601 0.03441321 -0.2557725 0.20373936 0.25768924 -0.055828393 -0.05331963 -0.06660135 -0.04769201 -0.06084311 0.054451525 0.06676013 -0.09195239 -0.05174346 -0.15423436 0.0032213794 -0.3065199 0.14782676 0.0759501 0.11001433 -0.18878561 0.015997147 0.007421793 0.016375381 -0.030918488 -0.14228329 0.021349838 0.11522514 0.12177968 0.025035951 -0.15486072 -0.002481088 0.011890868 -0.11827627 -0.11384163 -0.112714246 -0.26198736 -0.0516053 -0.00896135 -0.020082995 0.06945379 0.13196693 -0.21691789 -0.13175565 0.022089481 0.075224176 0.0915112 0.05082975 -0.1977841 0.012649945 0.04611165 0.004843821 0.027319157 0.060563095 0.01739709 -0.15354449 -0.024846606 0.05403262 0.048875976 -0.10316557 -0.08270648 -0.38334158 0.24437512 -0.003855698 0.14400207 -0.1934015 0.17679104 -0.16249374 0.22399963 0.2060901 -0.17695159 0.033203505 0.09115846 0.03556428 -0.04721333 -0.2983657 0.097579986 -0.22553518 0.014285163 -0.21717404 0.20801456 0.037100703 0.02136414 0.0380035 0.053694643 0.1681321 0.13519855 0.27133077 0.19853221 -0.06892992 0.076390974 0.2703877 0.12992568 0.14376672 -0.17538324 0.10891428 0.052720554
away -0.26173872 0.06671605 0.028139597 -0.15528472 0.06480445 -0.30320513 0.11356135 0.24846318 -0.076575786 -0.10430005 -0.083590284 -0.072103456 -0.087809786 0.097537294 0.059743166 -0.064041816 -0.12128426 -0.17706636 -0.0024673673 -0.260421 0.105445966 0.026468897 0.12928356 -0.10340152 -0.026032707 -0.043255858 -0.015539252 0.017277211 -0.12577385 0.010381387 0.21561557 0.12160274 -0.026537035 -0.13620695 0.04373589 0.04151426 -0.0009496115 -0.15606514 -0.18596679 -0.25231776 -0.016718274 -0.072006404 -0.09653912 -0.03963883 0.18986653 -0.21017054 -0.11061368 4.6370355e-05 0.1360832 0.07229067 0.039263647 -0.1423594 0.069018856 0.022450335 -0.07473494 0.024986388 -0.017692288 -0.031030128 -0.18791695 0.0032105756 0.15183534 0.056050662 -0.0555801 -0.05032633 -0.32043663 0.17056896 0.09685283 0.12942588 -0.19689675 0.20620121 -0.1501616 0.23671764 0.14555699 -0.091942325 0.07142491 0.12476827 -0.039860252 -0.0018749889 -0.17954622 0.056355372 -0.18265662 -0.09548028 -0.22668888 0.2351213 0.010607656 -0.008408409 0.07684102 0.13601713 0.12353852 0.17014845 0.24272498 0.18199423 -0.031772587 0.022792267 0.24101694 0.101148576 0.14922774 -0.24420777 0.16881023 0.10247676
done -0.11841278 0.08197159 0.08609174 -0.17040111 0.09243733 -0.2854461 0.12373791 0.3063516 -0.08278308 -0.09933949 -0.0766279 -0.10961231 -0.08643544 0.07567033 0.11878779 -0.08336904 -0.057228986 -0.15421265 -0.046105307 -0.34496686 0.12904048 0.06223567 0.18520893 -0.14379281 -0.048680507 0.016583819 -0.046888385 -0.022049326 -0.14497551 0.024203029 0.1252512 0.018157702 0.06786267 -0.2747299 -0.022577964 0.06583221 -0.097487114 -0.12625954 -0.114692 -0.21402737 -0.032049336 -0.053366695 -0.04649226 0.06372892 0.1308888 -0.23686329 -0.07758447 -0.027498899 0.109990835 0.12210935 0.0895198 -0.18083012 0.036769956 -0.028303584 0.0019087828 -0.0057434915 0.03641372 0.01399138 -0.15094104 -0.07739752 0.03299168 -0.009044299 -0.029809479 0.027329756 -0.3637552 0.24484587 0.12294112 0.134236 -0.21826507 0.15699853 -0.1217879 0.21389231 0.17815216 -0.09593764 0.066877194 0.075652175 0.027695464 -0.05001096 -0.2423756 0.082915075 -0.25028354 -0.056020282 -0.21444845 0.23349394 -0.03941565 0.027371878 0.08918271 0.14525613 0.116955504 0.15898989 0.29429647 0.17408808 -0.053874042 0.03585203 0.21542522 0.10344208 0.16699293 -0.15035208 0.07964928 0.10290924
poor -0.22565152 0.072892554 -0.007349058 -0.17899518 0.05768431 -0.29851654 0.09156967 0.3420498 -0.104952596 -0.18787947 -0.1772796 -0.038013633 -0.063231684 0.06769734 0.075613424 -0.05368167 -0.04230482 -0.23391072 -0.011849754 -0.33557662 0.12209006 0.10796102 0.23011693 -0.12967637 -0.055117298 -0.03139396 -0.0757405 0.10592649 -0.1816989 -0.04072947 0.1853477 -0.04570679 -0.06652992 -0.3471853 0.06173764 0.10315228 -0.05781545 -0.26459667 -0.17338574 -0.2153736 -0.080550656 -0.1438687 -0.08201466 -0.04287844 0.23974878 -0.2543126 -0.11554196 -0.061979175 0.19233286 0.081399 0.09523859 -0.099630184 0.081167 -0.17600727 -0.10463609 -0.06940884 -0.083514914 -0.06355575 -0.19067585 -0.09235075 0.10253957 -0.03809253 0.060606435 0.053041093 -0.37124175 0.24392289 0.12588319 0.19371833 -0.23192553 0.20422508 -0.038024068 0.22110023 0.096320316 -0.00842571 0.20807897 0.06811721 -0.0863613 0.026346698 -0.08939517 0.08053243 -0.24412397 -0.10110778 -0.21887036 0.09454037 0.027662693 -0.057422377 0.17644425 0.14671928 0.062380716 0.103992924 0.23024571 0.08235881 -0.010710503 -0.026847301 0.10079639 0.10931635 0.2338892 -0.21180397 0.04592134 0.20400903
wish -0.14224283 0.11010101 0.064714044 -0.15215458 0.05306105 -0.27972892 0.11860959 0.299304 -0.079936735 -0.098464705 -0.09383832 -0.105223134 -0.08778132 0.07978374 0.11020667 -0.07301568 -0.0822768 -0.16241604 -0.016931294 -0.3493243 0.105001606 0.056723844 0.17168811 -0.1458182 -0.058010664 -0.0032528257 -0.039084807 -0.024675598 -0.13248958 0.010000871 0.14583164 0.04304167 0.032890733 -0.2384163 0.005682612 0.03920814 -0.08772694 -0.13410105 -0.121972926 -0.25497738 -0.04591968 -0.038183954 -0.05957286 0.051614452 0.13080698 -0.20466228 -0.119662724 -0.020894362 0.110615365 0.10275171 0.083016016 -0.16548897 0.05605414 -0.035820086 -0.027156232 0.011909578 0.0223009 0.0003750868 -0.16005914 -0.052548014 0.06630441 0.03123232 -0.038601883 0.010412042 -0.3774832 0.21362074 0.08578124 0.15045692 -0.21522632 0.17697647 -0.105562605 0.20028614 0.16087084 -0.09699562 0.067835376 0.06337533 0.02113464 -0.026119316 -0.23069651 0.095599286 -0.23182398 -0.06640852 -0.21891618 0.23898017 -0.035640717 0.015198315 0.0948465 0.12857355 0.1356897 0.11997139 0.28005618 0.19428921 -0.04351612 0.05563478 0.23371497 0.08461941 0.1432623 -0.176428 0.1041783 0.10794179
home -0.19751467 0.089224875 0.03506744 -0.14117528 0.051059924 -0.30300215 0.15973601 0.2733423 -0.04261991 -0.10181141 -0.07447151 -0.07919491 -0.07892006 0.09363116 0.05937661 -0.048041396 -0.09573355 -0.18081148 -0.020323018 -0.29930642 0.07933238 0.04156613 0.09413996 -0.17421083 -0.006424242 0.0067210975 -0.008590236 -0.033002295 -0.12858284 0.046503227 0.19242086 0.11589782 0.038083088 -0.15050717 -0.012779243 0.01950905 -0.05604039 -0.13882527 -0.1266412 -0.26063305 -0.01555111 -0.0539123 -0.060930904 0.026272641 0.16301957 -0.20583957 -0.11743468 -0.018152516 0.08383126 0.12041051 0.06500453 -0.16831918 0.050553728 0.047726486 -0.02235167 0.052245736 -8.754132e-05 0.006991114 -0.21686469 0.0015050969 0.12722611 0.036566034 -0.06607963 -0.030702878 -0.337683 0.1807807 0.05477263 0.08851563 -0.19114628 0.2110437 -0.14488101 0.23079789 0.16925073 -0.14756477 0.048217602 0.09384111 -0.010946036 -0.033064347 -0.21154834 0.123010255 -0.19797908 -0.035250697 -0.21872966 0.24123695 -0.030752739 0.010765171 0.034913328 0.14813727 0.1396756 0.17795625 0.3007239 0.19599783 -0.057574335 0.0461266 0.26128122 0.12334932 0.11099264 -0.20457754 0.13625932 0.07573878
moment -0.1951762 0.07926196 0.06032937 -0.16724278 0.095073596 -0.3159436 0.08496468 0.28496432 -0.07407108 -0.14750436 -0.07251391 -0.104580395 -0.060801007 0.118786134 0.06257239 -0.04550338 -0.11383109 -0.16980244 -0.02037456 -0.31299913 0.12451152 0.056334026 0.14715871 -0.10815668 -0.054141894 -0.0064857337 -0.032526445 0.004625557 -0.1424657 0.041006528 0.17861094 0.05028494 -0.005003736 -0.22239845 0.04704708 0.067308515 -0.049909722 -0.17731275 -0.13082342 -0.24895135 -0.027458418 -0.07431985 -0.10515132 0.0069588614 0.19237125 -0.21918091 -0.07132181 -0.033195853 0.13283025 0.08993505 0.06639733 -0.13942324 0.057443473 0.0061433073 -0.050720293 0.023391815 -0.024483008 -0.030193971 -0.17008954 -0.050738607 0.1125931 0.026776986 -0.04140835 0.036218263 -0.33442205 0.20169535 0.106961556 0.12518606 -0.18799798 0.20459542 -0.10531237 0.23950695 0.15194221 -0.09754283 0.11691753 0.10663828 -0.05985001 -0.034636077 -0.16976565 0.05706379 -0.20890485 -0.06459614 -0.22688968 0.2208521 -0.0019976795 -0.010464328 0.10794273 0.16327175 0.10822738 0.1758873 0.23031794 0.16432467 -0.011072953 0.03661395 0.21533787 0.110960454 0.14626946 -0.23662774 0.1436315 0.09450325
even -0.21264453 0.10601091 0.006069386 -0.1296778 0.057724003 -0.2878697 0.13908848 0.27630818 -0.050368108 -0.09626526 -0.09726452 -0.09053187 -0.07375309 0.07841358 0.05675696 -0.054093324 -0.10306412 -0.18649948 0.0020539716 -0.31190866 0.12647822 0.084413484 0.1482415 -0.1367281 -0.03722333 -0.0053296997 -0.0033371574 -0.0049667484 -0.14790788 0.011108299 0.18338285 0.08202778 -0.0028467705 -0.1616375 0.009433937 0.046585336 -0.08065941 -0.17272393 -0.1240994 -0.23645532 -0.028482461 -0.07153272 -0.058998242 0.0052913832 0.16040087 -0.21082884 -0.110834755 -0.023367623 0.09213146 0.084056534 0.07898232 -0.18874931 0.04251793 -0.005639117 -0.050069004 0.033515625 0.032060903 -0.019797977 -0.19540122 -0.022796942 0.11505979 0.05488822 -0.06842117 -0.027991563 -0.34420952 0.2009102 0.03448836 0.15053941 -0.18190289 0.17673585 -0.1168722 0.21856484 0.15582435 -0.115472265 0.094088316 0.09381421 -0.03347204 -0.024178704 -0.20610158 0.07567968 -0.22078925 -0.062337425 -0.22641146 0.23126093 0.011214991 -0.009691686 0.084159285 0.106694706 0.118895926 0.10668912 0.22965658 0.18023236 -0.03223113 0.026875328 0.23571646 0.09608954 0.13219512 -0.20546068 0.123589665 0.10014803
mind -0.18200986 0.067823604 0.0438081 -0.12681139 0.09039388 -0.26361948 0.16476691 0.26932257 -0.083216615 -0.0710511 -0.08894959 -0.09101187 -0.053478196 0.106259376 0.066581786 -0.08160719 -0.11546249 -0.13689066 0.028341254 -0.29381 0.16449024 0.03131977 0.09940046 -0.115091175 -0.015077101 -0.02491007 0.023292024 -0.02138145 -0.14470057 0.040703006 0.16585909 0.120292336 0.009184633 -0.153323 0.048047584 0.027758932 -0.06984566 -0.116906844 -0.11202002 -0.26390556 -0.028140139 -0.043619618 -0.0591746 0.045205876 0.15544704 -0.19861704 -0.1142338 0.02835949 0.09136647 0.090058215 0.054231446 -0.1655348 0.030497631 0.061571706 -0.016945064 0.008960977 0.034871 0.0047951033 -0.17957982 -0.010795622 0.057351723 0.05301306 -0.10096811 -0.03424876 -0.3671232 0.20031826 0.05280351 0.13919874 -0.18547946 0.20980377 -0.15713085 0.230626 0.19068576 -0.16033667 0.027953127 0.09677655 0.042170342 -0.04709437 -0.24360132 0.08694787 -0.19979563 -0.060664352 -0.20804483 0.22687262 0.019741282 0.0063987393 0.070767865 0.115497 0.15208189 0.15122335 0.20912614 0.19727539 -0.040786523 0.049164426 0.24046884 0.11376225 0.14216024 -0.21790671 0.14914523 0.09024848
however -0.17887823 0.083129585 0.051070403 -0.12452286 0.06197059 -0.2717448 0.14015083 0.28537855 -0.09588332 -0.097063385 -0.10100836 -0.10153801 -0.08677676 0.08187847 0.070933156 -0.07655857 -0.10599999 -0.16940884 0.011616652 -0.3012871 0.115619764 0.052096393 0.15668228 -0.16334343 -0.012239109 -0.0019045798 -0.012529683 -0.016649289 -0.17627047 0.015133302 0.17336088 0.07882805 0.008849774 -0.17328818 0.008009198 0.017688943 -0.08690729 -0.15645696 -0.1376957 -0.24351326 -0.038298998 -0.040485412 -0.083904415 0.017346216 0.14101593 -0.2126161 -0.09791177 -0.014104898 0.11537792 0.107054435 0.07472045 -0.18938944 0.056529086 -0.002244899 -0.039809804 0.010811869 -0.008899058 -0.0066969306 -0.1830757 -0.039430976 0.09451113 0.03499416 -0.057695117 -0.021005975 -0.36986333 0.2018107 0.048468936 0.1390065 -0.20329641 0.19908978 -0.12083763 0.21017362 0.16752268 -0.12727994 0.07208011 0.07807878 -0.015541998 -0.012903204 -0.2071765 0.08018825 -0.20027675 -0.06794872 -0.22431862 0.22575553 -0.015540856 -0.010709331 0.09338514 0.103696994 0.121139705 0.13198136 0.25539294 0.19285321 -0.055157263 0.066730775 0.24135035 0.10393841 0.14005469 -0.19660649 0.10835141 0.081767134
room -0.28235087 0.04380699 0.0214395 -0.18211855 0.07310273 -0.30065092 0.098870575 0.29974267 -0.01139997 -0.12832968 -0.074910164 -0.060003523 -0.046500277 0.09161232 0.08049517 -0.07657521 -0.092820466 -0.19515863 0.010373371 -0.24304806 0.14348502 0.05758127 0.1285983 -0.10250447 -0.01626532 -0.022314372 -0.036139708 0.0049597234 -0.08603937 0.02506006 0.12227664 0.10363125 -0.040934253 -0.12879187 0.06653376 0.036471684 -0.014656365 -0.19855256 -0.16215946 -0.22690657 -0.06904345 -0.0675939 -0.07251411 0.029083073 0.19385257 -0.18174359 -0.07817897 -0.02357552 0.1318662 0.10795147 0.06109906 -0.14108248 0.050956085 0.003887949 -0.078458495 0.02567271 0.025771786 -0.027821193 -0.15464222 -0.013840184 0.14333369 0.04288106 -0.009830913 -0.043232385 -0.37726894 0.19998296 0.056675762 0.17958905 -0.19638 0.21012098 -0.11089897 0.23115715 0.14926317 -0.085660115 0.07636899 0.093851715 -0.06980721 0.015085246 -0.21440877 0.10658981 -0.23242481 -0.026238745 -0.2114626 0.24330528 0.032792773 0.012277339 0.05427282 0.12947866 0.114677444 0.16776572 0.23526412 0.15864286 -0.021799676 0.04908505 0.24473259 0.14399502 0.1338684 -0.22944182 0.14525682 0.06971374
woman -0.022351844 0.113252655 -0.0046586655 -0.089863636 -0.08320132 -0.2471058 0.27339712 0.28028676 -0.11363523 0.06647415 -0.14935787 -0.11251031 -0.07853555 -0.074560106 0.049231738 -0.116655715 0.019068258 -0.13396236 -0.023680788 -0.42055947 0.20809789 0.21799259 0.26894492 -0.25689903 0.02212106 0.11685246 0.049757354 -0.109210804 -0.2699449 0.10853634 0.14322235 -0.011188598 0.13055308 -0.3396814 -0.13748531 0.01690815 -0.34616426 -0.11201225 -0.062970854 -0.26428086 -0.12984945 0.09872741 0.025293453 0.27905294 0.006611549 -0.26897264 -0.16494828 -0.07012017 0.014414962 0.08201206 0.1962633 -0.36498624 -0.018470924 -0.024867225 -0.009754379 0.070668176 -0.048924956 0.08776483 -0.23264046 -0.11889632 -0.024424003 -0.013956618 -0.16125754 -0.020460678 -0.37348166 0.35137525 -0.18415776 0.1351595 -0.19012052 0.17519024 -0.15390347 0.28128314 0.2215042 -0.24001688 0.034302145 0.021946033 0.067973346 0.021294214 -0.36276215 0.19313686 -0.25081947 0.071105845 -0.33371767 -0.01683337 -0.042385314 0.036708236 0.10709993 -0.024058565 0.10059761 -0.0034829038 0.2978 0.15101099 -0.19253388 0.045967277 0.23631026 0.021614008 0.27702466 -0.008999534 -0.053424444 0.044271853
